2
128
1024
0.19960238155491558
-0.13244867432248297
0.3041194910061287
0.2668045951347194
0.8795554837469312
-0.5739538227113726
-0.8890456408555497
-0.5594467479266095
-0.1609694730285858
0.9628039111673673
-0.4145785392288516
0.6668806137087648
0.8598026216387409
0.5194826628333903
0.010112023079183217
0.3744253881613581
-0.2433750894372964
-0.6856588174212896
-0.5120585807406612
0.668829698988068
-0.8577733886509917
0.643975629691253
-0.4268785906895667
-0.4284756148706358
0.7971007706933321
0.8916755312465341
-0.35582331055226313
0.6750979975452575
-0.8362326113056787
-0.6644869586775244
0.5739533020633333
-0.0775573766850847
0.6737739489105531
0.7613170389096184
-0.03975007077103101
0.5307633949340554
-0.17735496464032077
-0.4224381236214034
-0.08966047892258243
-0.922346876367341
0.9406222885510857
-0.21118065536825428
-0.39567348779119244
-0.7915138273923761
-0.5200542357902841
0.8024157863796162
0.82231776958851
0.6728724235847242
0.7079127663990739
0.30773059669749286
-0.6220982291265841
0.5481503136149848
-0.17703030532346245
-0.5627935710510628
-0.8496485874889136
0.6969988883536486
0.2947813019382689
-0.2826584517777172
0.9426685898688445
-0.3764665435273726
-0.7653781243701436
0.725929837227918
-0.8215880245122181
0.6726707138215504
0.5023027542455551
-0.063237179967343
-0.7552943494106586
-0.9231821802215827
-0.7935874088398512
-1.009349780113242
-0.20996051698960205
0.6347264198210448
-0.8587743952177677
0.3923459606127097
0.630135381766102
-0.9337988105452673
0.4730753836244499
-0.2662439885052803
-0.6667039153925898
0.18143196539563486
-0.15123446719449815
-0.47563102287122433
0.03433016648933581
-0.6398117922462087
-0.9741679319957999
-0.7083918477942308
-0.43208568208206216
-0.04445686549090137
-0.11871373007840534
-0.30698935601346244
0.7361536776681865
-0.3246585934653434
0.14287641030296963
0.30764040697888234
-0.8469330171720921
0.5896679389576349
0.5591399733300247
-0.8366525996224383
0.7810699595082912
0.1727567141938029
-0.7072783410962155
0.26820750953739947
0.9262465077476864
0.36866769700841223
0.37139140826546224
-0.8867004103116922
-0.9025326972848814
-0.6357305249836241
0.9613583385907146
-0.19171042424141324
-0.1910336149881446
0.05275373447135394
-0.7642334469989794
0.6936189664428427
-0.11956204935057321
-0.0762395828782325
-0.19918264559731208
-0.5062120570636521
0.9596191956978515
0.7891244191492582
-0.8017526727763711
0.698251519844069
-0.3530637171373125
0.9289633336555262
-0.4491286951101873
0.5308914290381959
-0.08213958813789123
0.701376570672242
0.659287033881976
-0.21845859807910242
0.4095135861612502
0.02749627749467957
-0.7250721296805124
0.9794059421656469
-0.8360444559656603
0.7208006895413627
0.6001036402668788
-0.7482242079339215
-0.03382183494376596
0.6763788011915607
-0.6614085317265177
-0.011185127815549792
-0.19604327641538083
0.6489431775432651
0.8715557335982326
0.7952384148455526
0.5032709827740315
-0.26255770164422887
0.6337588223660002
-0.31549975243426676
-0.83522666144512
-0.21374756437712136
0.8274083944684155
-0.556428568080836
-0.24072229206788118
-0.8770330791499918
0.649701542842704
-0.009628520887676057
-0.9989982837206736
-0.3917388089387921
-0.703163174506348
0.7465833855596746
0.8477722057328329
0.9174421716774671
-0.18763730500851483
0.8538776750863113
-0.7538207124018887
0.7767850178417787
-0.8478488387866941
-0.5950735460818767
0.0033940396484088897
-0.029059846103958897
-0.5585547134433456
-0.21318666016641524
-0.5137935543469996
-1.0418616829073184
-0.207921715433566
-0.6639692311702994
-0.05708498708812687
0.7449736360127686
-0.7344181706465948
0.2892265041864747
0.20178262331871571
0.37518528267579243
0.772639345879143
-0.6932589374009208
-0.7752709406587364
-0.09241093317659803
-0.5029536956615992
0.5853848743734588
0.6176610821534845
0.060313622215589696
-0.22361205359458763
0.9654587030670357
0.1208441199340969
0.24705093383200502
0.12699124295505435
-0.3203040135265861
-0.5004791185770756
-0.5214554095980559
0.37834448398371806
0.7346323606878338
0.028489302655125063
0.1446715972241907
-0.8825780952923622
-0.548273003110511
-0.6344556809863959
0.25191952663881606
-0.7149079552670176
-0.08258409009089022
0.0595454408884985
-0.7273545843595276
0.748487365027452
-0.6058314750955667
-3.014177683224096E-4
-0.5379773675925544
-0.5726505446454805
0.6288723496902304
-0.49693223938522835
-0.5816276694075846
0.909372767952026
-0.8659244519341265
0.6125196739094559
-0.05919197622357426
0.875437568565687
0.26620559865515014
0.4448668438758062
-0.20051450212981767
-0.6413208572369216
-0.5840383308439477
0.039885157926500735
-0.5640495705996322
0.005825395109608964
0.35011182597671336
1.0913371963354233
-0.06710732678334731
-0.8546514945500304
0.9109462104794471
0.481019713545127
0.4077204938677845
-1.0977741227280648
0.5007887810851142
0.6587020493724467
0.4238735476572411
0.20901329462664187
0.4174309714863706
0.1621332995872662
0.2615445800352393
-0.8103529904832724
-0.5565548679497423
-0.9251539939397199
-0.3213200719162857
0.7487017074187293
-0.5255245868682041
0.008830020423614696
-0.20705202595463482
0.03172611843578382
0.8347178817015459
-0.5801941787998911
-0.41522143347455776
0.6448564227534714
0.9698777877915273
-0.046399272885665435
0.934888399026986
0.1706879003299783
-0.4262272691784462
-0.43015150714127903
0.44092836567077703
-0.9104022734900478
-0.9298529591186769
-0.703926866982664
0.6876553187589756
0.8996489396662075
-0.00920782315943053
0.04437036538876142
-0.41831070048160196
0.295336945054349
0.1223891312812311
0.3760665141974838
-0.20222680432649273
0.6224391530648273
-1.060775270353051
-0.46156617388129645
0.10178875213945351
0.857574659724906
-0.8682886863146534
-1.0124502759453715
0.8824089018156132
-1.0057716484684922
-0.8390869609529431
-0.10555855006952787
0.21897364873976047
-0.5365817545129907
-0.5160205969036769
-0.7893062647586697
0.5682683373594548
0.4755900830504996
0.3659036975281814
0.5260596477859595
0.09277968219100201
-0.5185703132262405
-0.24864582265555477
-1.0055720636821657
-0.9209374611161066
-0.9365073522069738
-0.562505650879097
0.16013878957248417
-0.1926665207868172
0.7016024802607937
-1.0238951717288889
-0.7175442604053756
0.5760245417897506
0.7215739046478743
-0.856124291784585
0.5264164707658681
-0.11808119806566796
0.3237173365002376
0.35049069690051643
-0.5463317270409581
-0.3169656911670822
-0.025043794442936026
0.3894792252462805
0.3288731118203908
-0.33070726368771325
0.748450528101492
-0.010210751264336267
0.49658748972257266
0.396039155153141
-0.25775771123551255
0.44276494035208086
-0.15385297374329424
-0.03745937645633268
-0.014776135637262364
0.10913464382649325
0.970883958657252
-0.23105621348020572
0.21883181649568118
-0.1934970511581298
0.11110455610154243
-0.17009607693573653
0.43660150671623943
0.22491324912269386
-0.16432428201284255
-0.7901716489063401
0.15410919597406833
-0.8401463636199645
0.5768151359766577
0.5570608183711223
-0.5710370154928455
-0.19422135997471407
-0.03500619827366123
0.9044409655848107
0.3909373650928295
-0.6239695653945833
-0.388116051711019
0.6208873267631173
0.2611669673414472
-0.24520856254036844
0.010711930202443225
-0.3119422836208614
0.3283079718202892
0.7114061069576076
0.3582164354013106
-0.1267620208923247
0.9176852184808394
-0.6354838102376313
-0.7325099905893736
-0.22813066231928825
0.08192641848293129
0.17308537180891545
0.3999862025495666
0.8636118540478246
0.6154990579878773
-0.6948757659706893
-0.7773830046890156
-0.8660267490550675
0.7769989048871162
0.195154541764726
-0.8792263022939938
-0.6522124232513569
-0.0903876454812817
0.6632194815519746
-0.6680004269315211
-0.9405778283050923
-0.12105584589286243
-0.003272483867689004
0.22688123141365105
0.45351243633181665
0.6248411969536262
0.9056322681797954
0.4510282987110797
-0.9907638348931652
-0.9742472902337281
-0.5931698799658713
-0.9127375058915999
0.957921610500683
0.7777138405156306
0.3199077400150436
-0.6697204843997756
-0.4095448824320093
-0.3212028922276922
0.33765869660336306
-0.7621143900274376
-0.5464514339933431
-0.4816662425667449
-0.05447963456875427
-0.7767299306913373
0.10310606420944429
-0.3661153846352048
0.6909744448258864
0.5690152028837625
0.8914881511991787
-0.15278703343940714
-0.7511711020645311
0.5220596617483514
0.43388307844568097
0.12304968554257956
-0.8178251999647286
0.40873414673387204
-0.6438506677454124
-0.10665254110762068
-0.15494361439761822
0.8360183692137507
0.808925985700042
0.29355252273622123
0.6382761929276622
0.4973067466224952
0.3624786564208589
0.24152257181724746
1.0775053885816757
-0.6466804868125557
0.44436725773178115
0.3219524397606192
-0.04387900805119525
-0.28383034081088654
-0.8827292017919418
0.41976619654902053
0.5562453058987604
-0.9201622546797185
0.11348503448588104
-0.5309914385035783
0.2565279686002758
-0.9871217478264951
-0.754658438374471
-0.9173798978872121
0.13238776860803989
-0.7342260343938856
-0.3287690678999904
0.9448344072700704
-0.7459300713554397
0.08329562697901774
-0.7200783836862062
0.25776437722898166
0.8786059526571163
0.5983897493580731
0.6644737162919395
-0.054980108817741895
-0.498103753987552
0.6180119512033143
0.7826710947922413
0.7029705991313064
-0.47210315860068863
-0.1404372845438758
0.05779868723696828
0.9795922473054319
0.14192769988690848
-0.6227137347511501
0.5742818549753266
0.03268391224381013
-0.6347178820265112
0.9467858480772356
-0.303856427182562
-0.15971797256214046
-0.13214763748999866
-0.5670505979802705
0.7927518500266822
0.9970364962211754
-0.28695386257491734
-0.9793793132246318
0.7078450919596271
0.9716316048288703
0.9684250959944123
-0.001371413853542611
-0.7464144691938207
-0.19952421557945227
0.41800731178276107
0.10177777466855494
0.8687945990740802
-0.3850233031331305
-0.4017706884273375
-0.7575996713990979
0.5697428291271888
-0.4603260780637448
0.16304414413243043
0.06011359485056002
1.0091949006035659
0.211662283852306
0.06567981985572274
0.3896422337645051
0.17404064048863813
0.8351218603132322
-0.26971753266381143
-0.3418038990807752
0.9156476467808313
0.6482547362793148
0.6861577464367621
-0.6479754857177262
-0.548492062616864
0.895813200009896
0.3975989276117649
0.4907400285294123
0.39372381807342066
0.7678046339366436
0.8503910662101812
0.7937922196538685
-0.7042237633292701
0.369371429457452
-0.16851708018811834
-0.153256634483644
0.6785231011946854
-0.5034771279041774
0.9821890750438919
-0.8139546154696196
0.13089339225112187
-0.40201538288829963
-0.6072983049049243
0.6707398649693984
-0.4872149909307804
0.6382359606656239
-0.7855623775245105
-0.0010136416246093493
-0.8613454257570518
0.5453176350655232
0.22592141300403645
-0.7630350940109718
0.8417090620162304
0.168620520154888
-0.5485534739390747
-0.9252249218771531
0.3575473096388053
0.8138186772283817
-0.7785237530674496
-0.3428230739997297
0.49391941795841166
0.6124039558938665
-0.8855578773808763
-0.9463995816101183
0.6597919775269321
0.03423325035421261
0.5596967631127778
0.07644031019793829
0.8206487229267505
-0.41234724236197684
0.8987368782230041
-0.5341138320706382
0.7699672395995473
-0.5523007286666484
-0.36266663743488614
1.0655092990232915
0.4936795923148031
-0.30440761701400415
0.7781224254697406
-0.386619327725173
-0.9720736108008932
-0.1176403454649363
-0.8559706613359966
-0.2509330227342696
-0.7211124649067246
-0.4549615637000719
0.14367368059551755
0.3416666585824592
-0.03256948366770377
0.8905200045286145
0.9687821864915935
0.22337368607147548
0.16016151922147423
0.5491637649167027
0.24212534439344272
-0.5131144299174784
0.6791253704284519
0.09211262580217174
0.050882068309181586
1.0140936338658175
0.7729268288715541
-0.5356347382976936
0.7686083224830135
-0.6760939322226633
0.28738787938071414
-0.09853164606551938
-0.5728546423258744
1.01617701199679
-0.4849647178193191
-0.8133937401498073
-0.8043093655137071
0.47199508522898476
-0.18902238594173132
0.5941131346630444
-0.4615399356502429
0.7246908137659968
-0.7521166852967701
-0.07941154703912635
0.4199613438809517
-0.31505968519013855
0.8782078860224892
-0.6322833837333869
-0.3440065996803241
0.6559532458800348
-0.971776489536333
-0.9408344251441002
-0.28875805957100253
-0.2644547383627349
0.12321148902434738
0.5668700889747534
-0.1985523337162718
-0.6105821445350442
0.3799458437167693
0.6551789518142755
-0.37582713285928115
0.8482577561343441
0.9032250415656464
-0.8940346733143963
0.43402941649721916
1.1190822797048594
-0.7723469963213231
-0.8767945282104036
0.30778270852687656
-0.47815618021213285
0.5655033134556453
0.36678931969404427
0.648256174220351
0.9294101028876482
-0.09658201801488073
-0.1497321315141507
0.35470674064481
-0.12116516164333307
-0.9441561540868066
0.6616775610613012
0.8950251593823257
-0.22624058949210105
0.7015340607240048
0.35710173265260853
-0.3402010004065244
-0.16338704445829666
-0.8505779404142587
0.10677046314378934
0.2785461462734232
-0.3768115588439687
-0.05075301633985773
-0.6649731786012851
0.44693769686233387
-0.2961215245300969
-0.15956771335135267
0.0675940831056372
0.7853620421237123
-0.600092738830324
-0.2887328173278862
0.22191605574967477
0.3224249228966524
0.23366207899630764
0.38729750521495904
0.022813605757283507
-0.08518355634582889
0.8411416428530682
-0.06708837913901737
-0.5240534429006429
-0.2269149645763224
0.24131969292873814
-0.5021310894885647
0.45692998361991294
0.30234845171253943
0.6282553478220488
0.7449560567623749
-0.11864612523272518
0.4615047879832735
-0.09111155421677705
-0.5437826330587568
0.5872974479629189
0.011237373494114144
-0.5586960488850936
0.9409571228669174
-0.3408247295979437
0.3902794256885081
0.6352740926702842
-0.06377228313885867
0.8575421737439709
0.9100020873469399
0.5814053286661208
0.13307285141079808
0.7531041274198074
0.7297984284192928
-0.5708154147703718
0.29236417746287974
-0.81069219718843
-0.4973885085099488
-0.4751221439213452
-0.6532517779367081
0.9762268758683212
0.008722815474880987
-0.6414023301137864
0.40788621283133164
0.9092060512279563
0.73469602421537
-0.8830081205676076
-0.6562612479162625
0.5894717194903283
-0.33220581540927435
0.49623411380183685
-0.8088350043611263
-0.021005363879470402
-0.6161308773654249
-0.05057278854153796
1.0677204352344596
-0.3169186857798032
0.16731378477191924
-0.5890621354659954
-0.5856810116560889
-0.7776946662845154
-0.0501813920020688
-0.08892908778988706
0.4009304960119537
0.02636321487634524
0.055726538183040075
-0.9476968780606219
-1.0499825879498856
0.6281677726302681
-0.8165626711177136
-0.1586271712509631
0.01387286499957286
-0.3027862201610645
0.386787392466785
0.43616075175535696
0.06632609463829407
0.576385312079384
-0.1481549360262751
0.9005245240427855
0.14090694375399704
-0.4147968227267399
0.43769353651862436
-0.5937018473797695
0.26551059570335434
-0.08952386312902114
0.961076686356044
0.47683184206695756
0.07137873841454462
-0.5631483753377774
-0.7419746860914056
-0.728232011562589
-0.15874127417776457
-0.36715202200013625
0.5987971848097705
-0.5572221239175048
-0.6752415665039215
0.2099705306040585
0.2301678658395941
0.27236870836120575
-0.38521239326993983
-1.1666735709445581
-0.10745647450002685
0.6668855982480472
0.5106342928906576
-0.42222626400291385
0.7319744336004347
0.6706042146105832
-0.07608231433382918
0.7836643166505792
0.2403973278467253
0.9965954820751552
-0.13446425272018847
-0.7741030702340207
-0.6963583913491111
-0.8741138103339431
0.26451746168028784
-0.4764163484977161
0.1385190524320455
-0.590386909501666
-0.2499560754937723
-0.15705373631936925
0.2711434024287487
0.07862537216886074
0.5148925102763393
-0.9402864988279493
0.6047113426653296
0.7107916701886401
-0.3745942596016939
0.8504045298775083
0.7988041678740913
-0.1714180767995244
0.8139372997364724
-0.7162088062864532
-0.2133904059078358
-0.985619089021656
-0.4346407518214067
-0.6669584118826806
0.9752514626137213
-0.37443203616245224
0.34306496674417514
0.4951788356619463
0.05168517121300177
-0.2241821083673638
0.46701516741214455
0.8685876347681918
-0.10484022884234397
0.4843720261713884
0.7984794470670008
0.09693406029777116
0.3980808400894924
0.06213730896745042
0.7003889747466624
-0.01093870451065534
-0.6861790053638388
-0.6102818257873744
-0.5936571125477345
0.7537265840671477
0.3641354898686137
-0.016701334241728805
-1.000462959427647
-0.36994809674371987
0.5479659412500069
-0.830248824540181
0.2674493733008325
0.23864095981408984
0.6562728914619947
-0.9507267351984828
-0.10921169495183268
0.8903108106496045
0.8196561944136276
-0.024290690486468373
0.7294759834868817
-0.44413101905255387
0.19222284937073597
-0.6306664702737953
-0.65057773574453
-0.9562491149471303
-0.4370161604187746
-0.9567718374111609
0.14698050175808944
0.02614043448247891
-0.8009681046305561
0.8337808146083345
-0.6242849900124644
0.7328517549438338
-0.8627595378590864
0.6681409969528586
0.5468661977874735
-0.9707255768194937
-0.5306020935761786
0.06966618795797491
-0.03820592426831586
-0.03447274018627588
-0.9554087124790324
0.12793546552230958
0.8169710460966937
-0.9962780822876941
-0.9363350270906831
-0.5927135287486552
0.714641259900596
0.4784039369212464
0.008890784145893171
0.6573426763264102
0.3448729398579596
0.5859078847598215
-0.2743907054494281
0.8704898751909131
0.7226971599734913
0.012891292777562496
0.13324771121260934
-0.012598223951591854
0.8554274044073676
0.08269587862136661
-0.1096421824041542
-0.45752118492110877
-0.3206027426028549
-0.5861360668864076
0.7036689973443938
-0.3172707738440127
0.20858115068417554
0.4918864658393876
-0.3597406750911459
0.580478661265203
0.1550121579981933
0.893971161529416
0.783396325947131
-0.9248428541146025
-0.9039395235747407
0.46801673798279786
-0.47055928374461437
-0.9823260823956865
0.3438997402881049
0.05756853935350949
-0.8218646555444222
0.4160798170655772
-0.5373581298122346
-0.6226181828441961
0.2797105283823657
-0.3471213619182509
0.866380238600154
-0.9458856209148286
-0.5601611359922255
-0.6830388261016023
-0.581007802403156
-0.351141057587712
0.8143103944181536
0.9338809562963788
-0.5372131255533926
0.32876709336377347
-0.8251337144488228
-0.6231264180842685
-0.7688441106687836
-0.5323739498396407
-0.022282253943122943
0.7348809162536202
-0.9086936175516661
-0.6484506549617363
-0.03611056883808512
-0.8297878285614539
0.5342498083927977
0.5094786780488267
0.8147513875391913
-0.33559447338645904
-0.12186374012186747
-0.6644213348096087
0.9406353819678703
0.1586306998820998
-0.8873220347200906
-0.25041129396794726
0.3807094139791829
-0.5123735820880323
0.3552734738245942
0.06771854231367201
-0.7762473946792928
-0.23588058916163626
0.6395640033934501
-0.9173077405743632
0.3484462977656604
0.08158846800033029
0.7982284889427913
0.027689903788377754
0.49087363795813993
-0.624438962955008
-0.0481371867562862
0.052494491366045816
0.8087568926459059
0.49677267267098285
-0.56130421157574
-0.7783394417375145
-0.47863397989534684
-0.23555984903829869
0.9679564351973476
-0.3372920768292409
0.32643259082710313
0.7055558459873844
-0.8308877389448389
0.6945909571936841
0.39645203483367103
-0.16219678739856366
-0.5528617493540733
-1.0012084205022855
0.8551033759681678
-0.9769076200891562
0.39283924275648574
-0.2006445908038909
-0.38727579017032554
-0.9051793278436934
0.5530819511661736
0.7176730149833053
0.6620162947504686
0.5435628881575528
-0.8229751011618582
-0.7930966299869218
0.4386000137428866
-0.03735728817304312
-0.2613848309222891
0.968682274364619
0.22013625572902623
0.4352811156962161
0.8097517493153427
0.6698569349447575
0.8927443636333479
-0.2797200129787583
0.8664709658374331
-0.5962551546601279
-0.8858856209940575
0.6386468124213822
0.9659793187238669
-0.18986918512779638
0.5529838279742749
-0.7674954772807019
0.15434197457800644
-0.5029860654138174
0.19562209840223552
0.8361291905863009
0.05904148660169125
0.3385671605340547
-0.056461841741683755
0.9114334300241567
-0.46166241870372077
0.2728763121845905
0.018109660033000033
-0.9099210436608212
-0.6216104285657444
0.9599796660673111
0.2104759560322357
0.4649922390554109
0.9463401340409056
0.45745594758262786
0.7268829913378321
-0.05980511470109157
0.012500584456118825
0.14561570400329948
0.22591567771154844
-0.2840943708995831
-0.3122454583878233
0.8027597569368272
-0.6348254596728483
0.7746735871837381
-0.0040603148452589225
-0.616959831694547
-0.264450273872278
-0.08126965165272068
-0.21620760853180135
-0.8017147037237939
0.8160767309239791
0.8478667273516809
-0.39667292844129864
0.5316271700318951
1024
0.6192622948066387
0.6126833359555904
-0.27612385587899135
-0.519997376664621
-0.4272718502935364
0.9227178834013374
-0.7816458177471043
0.672414370421522
-0.38306176668915953
0.8873370538180034
-0.4923212963890136
-0.4251775640759035
0.9446131098470893
-0.29390185435009186
0.16042692582856707
0.03542810162038771
0.15017901941120598
0.806034719484215
-0.015506337696720355
0.06104714922199256
0.2704132477001724
0.33885783544059933
0.990742677809859
-0.3101246888080496
-0.5706621009700045
1.0199720826804917
0.6495112281584069
-0.8127602046669561
-0.18215530382318135
0.7482476252867999
-0.05368546273019303
-0.3391792470918004
1.0233529683182157
0.6955126846983929
0.5167321698597982
0.3016830236663634
0.03807784288139878
0.806979170788884
0.7755085989894444
-0.9556142419033931
-0.38715127187506526
-0.3418405353568543
-0.22248833161299872
0.33025317310565616
-0.5628199283425329
-0.8622471966689808
-0.03434654900881309
-0.398262424615034
0.5464303244739047
0.05110301733178069
0.7667995095026499
-0.5285103457444348
-0.3685658105891973
-0.5674514100525239
-0.30231122934337185
0.8136604520090394
-0.34262245712426903
0.9086525143351091
0.8110592871957577
-0.6602789486428992
-0.482556846874991
0.1485020556941425
0.5967732795840287
0.03703438905837384
0.5208602471179555
-0.43038634070353643
-0.6189381295692372
0.3674578161267476
0.19138779438771278
-0.058440747679591024
-0.1963900761988363
0.37890887884680047
0.017216402600788085
0.5944658648649522
-0.6998474759224901
0.426584782245134
0.9911361578969372
-0.7128291543534804
-0.36289349120832304
-0.9059438387456454
0.3840197928493473
-0.85092801493824
-0.5627317047159976
0.19703158368749346
-0.14498925712058963
-0.14386808734265172
0.8960575163503576
-0.179329734461467
-0.9393426366794667
0.19137148498806875
-0.5374587348849149
0.8107820348899296
-0.767213527209769
-0.756755437494222
-0.1154732345343972
0.5617595989703046
0.22085995641626954
-0.22842885935683865
-0.5893499000941933
-0.11865071916762812
-0.27126808144016823
-0.7100946012369196
-0.7012869204577798
0.0358483107413125
0.01715039994705305
0.6852692849667374
-0.6714208969793052
0.6515103700157295
-0.4962296916127261
0.8545069324680629
-0.5162911818078574
0.7960346825686686
0.15960549989928266
-0.3665523790725145
0.9381386765388677
-0.8454949974455533
-0.9396186381671334
0.3415532302407843
-0.3183008905629584
0.9478796132590863
-0.6583789642576658
-0.5801023979468292
-0.6149013356503891
-0.6964593260722137
-0.06097072982334172
-0.6272792881801631
-0.4128638619331957
0.1139543828411003
-0.33365185691962745
-0.0888641597615662
0.3039974984845276
-0.05371967230837375
0.26878176063570736
0.41989640190282085
0.9416374107823575
0.10729055331640187
0.9604767739402985
0.783864756633054
-0.9092368024813435
0.3563106543701819
0.7384586693957993
0.7065371298038682
0.35134509853387874
-0.7190969271472408
-0.8872090988004228
0.6012719710608856
0.5919599665251625
-0.39252623571009687
0.6310281468623238
-0.024289376956470918
-0.8943769474854821
-0.40926034146442436
-0.08750679392977567
0.07925822377416757
-0.8005150563254382
-0.8676759781438153
0.8817847621666571
-0.6272659374324552
-0.7684819581662045
0.7865659222276882
-0.3572626263329954
0.6760740552683461
0.03900645564959664
0.7216004607634311
0.30670409462761383
0.29893232479770404
0.14919028452465666
-0.6012120981692177
-0.32149327840191716
0.9411486136270276
-0.35605682473501876
0.8160799407392215
-0.6831996448407958
-0.26538297307552633
0.328423243434494
0.4691059743001318
0.43539846828183487
-0.8511261745673834
0.09644605492153553
-0.1254935236667566
0.46949505532606084
-0.7499900577429478
-0.574293833282387
0.41496289137312187
-0.8443296156733904
0.1623335142920762
-0.7125464368684686
0.8845704777518723
-1.021468169815042
-0.4208251576569523
-0.8082591654692375
1.0074689091988585
-0.5162025216286746
-0.33033623434225556
0.9817271919061525
0.22169069061610555
0.5432781036385905
0.2877771432663284
0.7001986711434224
-0.5812687840982059
-0.4574483217268096
0.07027447128430041
-0.14032247087628083
0.9358433490326731
0.30901310372075275
0.9455057656394007
-0.051484512416032725
0.7582976108878611
0.6206537857329825
-0.8869736941420056
-0.3446434294323633
7.937172581130945E-4
0.6401684197840719
-0.3649919715618718
-0.7058126979885304
-0.39148389292199093
0.09793587337113879
0.12523047338194015
0.3994858894023371
-0.6103871327095101
0.3843674077484338
0.5826544251913578
0.206831036781912
-0.8392861891792307
0.9558095901856685
0.37451997351250116
0.42822948604373895
-0.5692541171987316
-0.2058773540477048
0.07838830425290846
0.8435345144118257
-0.871455867471569
0.6670597022878949
0.28141981149933953
-0.6571250052023063
-0.5119984019770083
-0.9203821311265944
0.6195366738101946
0.15779980842443453
-0.9566998803757985
-0.22466614978166422
0.6223574100474797
-0.9444590997467224
-0.6323885551425572
-0.6363202162368691
-0.94813010606772
-0.4628698206557655
-0.14420836607735898
0.5708520738136456
-0.5242111512206191
0.3494441977468815
0.22247207499513
-1.0516244145132405
0.11736552355570978
-0.6007191128032675
-0.24826292058552635
0.570580914046611
-0.021487046941252384
-0.20279474705352052
-0.038473489448171444
-0.6598528327008414
-0.15677126593145432
-0.6215974473788312
0.5677951888065705
0.4184758012653664
-0.14705864833804774
-0.26849037332271924
0.10083060191560854
-0.02585988521714233
-0.5941822799686234
0.43906626996236564
-0.9137989210393724
0.06712148878858902
-0.06983167815848879
0.7263400517337575
0.38926070532734475
-0.3837212490321681
0.9289558486967733
-0.07301115853406835
0.26176074962850476
0.07586604134625435
-0.07516174768690065
-0.11933324620952815
-1.066704414151707
0.805664129244913
0.7671305057161709
0.9210454486324693
-0.06243371158287575
0.3817480940095913
-0.5781235042319758
0.180304497881901
0.31214240588475156
-0.11744731609666617
0.905084718808266
0.22479310135335964
0.15021734115471497
0.1427020517811198
0.20881059582877867
0.35940614245296815
0.616954060399601
-0.7205471274101684
0.29271664066303604
-0.26255789714939376
0.21939055035097096
0.7564649792592013
-0.25394952851947716
-0.20788289854527928
-0.7972677531148034
0.5835562753986379
0.8610017722896658
-0.09179482566777332
-0.16743698075611066
0.8315835926991159
0.6663716605675143
0.4312977042473986
0.5124462682972543
-0.18720904463526142
0.10483611266559907
0.9392955385876296
0.7452860663370844
-0.6436744135287236
0.12101906306715969
0.4892058144275693
0.5836016071709332
0.8752737705459458
-1.004631926357038
-0.3102051028061817
-0.7734815755697962
0.7565043660098734
-0.18862719815441903
0.3013578560954578
0.7360848490361387
0.8025685806827596
-0.9325326815784517
-0.21419907324163093
-0.947841449398725
-0.13811842224230883
0.46036880122320173
0.5651876086976114
0.4926137397030697
0.9888358808731481
0.16253275239101447
0.09989238166064487
0.3485316590231787
-0.47494604127619366
0.6516921316401996
0.6862105178406038
-0.5727492655815393
-0.8641316507949122
-0.8321164686407142
-0.9086680098509715
0.7061253195442913
-0.8227352255507623
-0.9014630969430002
0.038395090440454416
-0.46618926474004235
0.48275148910530286
0.06811241078894097
0.12472287285909896
0.7105491300324575
0.8022319438859545
0.6105881812553084
-0.5140458899861814
0.3970741588599718
-0.16395548068353175
0.9540986328088955
0.8338397211731378
-0.9550570678739007
0.34878053655042135
-0.7461397099264429
-0.7675468447584148
-0.9417390409319844
-0.4998326776510989
-0.15421654396768147
0.09092679000717288
-0.8377711736914992
-0.49666975339568287
0.9063232458907537
-0.5525655328231842
0.2886096244500292
-0.3398920396689484
-0.31674846674725854
0.7423978325163302
-0.08821015167268162
0.6030189702542942
0.6474315741900591
-0.2771131657852138
0.3275569301034214
-0.05728410951094579
0.33539197956276245
0.08361045080805476
0.342528335781748
0.7187016881890553
0.6391226891915983
-0.3795476695816693
0.5693402311181394
-0.4334611512995413
0.023452517582690676
-0.047811464805125124
-0.8982102802854816
0.5491084851567789
0.05832280707596272
-0.7620488627577153
-0.34599977061964127
-0.8703036065825017
-0.9115767323348638
1.044346391447281
0.8160708107089836
-0.5294666419267771
-0.2691287913200372
-0.7358694489068052
0.7465866272197188
0.7121798751537913
-0.41319736736074714
-0.6190534974235645
0.6634601942097533
0.2520681924652089
0.4911747133901091
-0.4863695750470182
0.8229474525621081
0.46003762310020524
-0.8867936286350272
-0.9886727554975113
0.5065719028880423
-0.13115801395986035
-0.686313623864524
0.05153986350833929
0.6033641137168031
0.2555481840338885
-0.9508013426650461
-0.25292376611619966
0.2646237193538399
-0.8072355874722074
-0.0019227998898305476
-0.8311003459198764
-0.652834993192994
0.6160370282577178
0.1741364005912754
0.4167222968867298
0.9317123872870768
0.7500658473245938
0.13231853026415183
0.31796718716119454
-0.7050163391043689
-0.641283417868614
-0.9083859024444403
-0.2904017407925517
0.67302456497229
-0.017254585659257207
0.41668585086696014
0.6943105379471233
0.14010546203566407
0.541522802801455
0.040662885598575324
0.3847686395414908
0.3441679945963249
-0.04607249279887857
-0.7550769688260403
0.018888917797868932
0.10970243759429396
0.7382558196050293
-0.10373420649614046
-0.12632371470519488
-0.8592966027794703
-0.8739401814492455
0.2932030063727555
-0.870528100008609
0.6771364504812694
-0.05706531261448996
0.019067863250462665
-0.4410970061352871
0.8295214440074834
1.0345254577165992
-0.06736999850820699
1.0125602513782315
-0.8921002166208403
0.16365039480346072
-0.6060122755394551
-0.8277429982176726
0.5237698587495042
0.6925616335421664
-0.5275298760781205
0.374912757707737
-0.04512483002691387
-0.02464314298481523
0.7172636413111818
-0.598840050068005
0.5121861502682842
-0.994796714842524
0.5915998869180121
-0.6768671435164327
-0.9116711999340514
0.31784234668841543
0.36477668517975254
0.725522847892909
-1.1853649525597499E-4
-0.5804274183742837
-0.2689140245860025
-0.4043341125411634
-1.0160623989468895
0.3165313910530723
0.004061542627207356
-0.34830136143071866
0.5115183845193942
0.39938969400825775
0.26197415794359274
0.9154250473864922
0.7678905704666483
-0.6354912378214385
-0.3564079811870212
0.05091410814391177
0.027703838060589302
0.6921507906361705
-0.38685738616654036
0.6668193025982478
0.06254788939269472
0.24040373967181214
-0.947165438275228
-0.8615267764825755
0.5574730258961905
-0.061589819896203074
-0.2394458863316787
-0.4160200275309217
0.8501883883419723
-0.5880339292109156
-0.6035899701858385
-0.4424628549665982
0.7722162646350788
-0.2396114313766086
0.5218728374426953
0.7456490084818177
0.061174493517018154
-0.9309389256979549
0.7249500185255888
-0.09825255007351197
0.10616872354325728
0.1644904423175586
0.5780927472026491
0.1321695978299311
-0.7609510617362453
-0.23861868002423273
0.6331952161270944
-0.008935396557954934
0.6358326600495133
0.38782177584305055
-0.16278545730825061
0.2333945076701592
0.6787326666678773
-0.6958758289391705
-0.07686084386787785
-0.6861605611723616
0.7328415434366387
-0.6658296165335361
0.7209185187308091
0.03027516998626055
-0.5911634707433333
0.482334443949027
1.044556651542253
-0.46823085448502383
0.19995506551646766
-0.2654079003833701
0.6215007442802176
0.27637294862686757
-0.9427825568542864
0.6744341745480695
0.6000427480004479
0.7550819188115043
-0.110315223277126
0.10125530182347234
0.2483999476968018
-0.4789248735837298
-0.5574940847509865
-0.061135001381448464
0.8223558251182297
1.0253612216962884
0.6903216147605633
-0.13188241517705404
0.8799968281731027
0.5364810613741012
-0.9353964231572895
-0.9025549589788496
0.33339884984003293
-0.692943693798211
0.006894799799362588
-1.014270103935308
0.7136158673248756
-0.32251434578157345
1.0952682059231669
-0.4375983569395439
0.7911753038483715
0.9287346485741484
-0.8946526389192246
0.2811475946766218
0.8360439698040586
-0.07379126297924396
-0.8118484614465317
0.41054730326123334
-0.40748925719139006
1.0889271675719427
0.7524599790042947
0.03464934005104821
0.5793067503705271
0.968337266721769
0.3734684011633451
-0.00786918563288799
-0.9587556501957192
-0.8629804918164784
-0.9662039202854386
0.48561052355719503
0.3453979897302243
0.20190645526052278
0.7228484035366743
-0.7023121398737747
-0.8931356086630794
-0.0033661811299566737
-0.9980076940058774
-0.14230695268977464
0.6293343375935919
0.018910831745432993
1.0878893062074302
0.3789075296490915
0.48529575732032615
-0.9379029930816213
0.4188382249158352
-0.025510708402338246
0.1262198042713639
0.11597585962484719
-0.8672303632052267
0.4705110560340305
-0.8959235939340028
0.22154661603024145
-0.6986409291469258
0.15198849987277024
-0.6824103277886319
0.5299521065443852
-0.3999345388673454
-0.11861926318168957
-0.5965482545171943
0.3596482026807452
-0.9230088259596465
-0.6478401962969582
0.35392177786246676
0.39535388487624457
-0.8614522290501521
-0.1684013103975594
-0.7112960405108226
-0.13841837222298806
-0.8381062335644807
0.5203940830553492
-0.18711128807860422
0.3889669080558955
0.08386196626196951
0.7719996852644565
-0.4088307758158093
0.367712550585093
-0.6204029865965657
-0.8942489201410129
-0.7952824234879378
-0.5268501636914455
-0.8575202691877662
0.7379627740516986
0.5133253540363844
0.3748764350227653
-0.7049986726693971
-0.36990187083442744
-0.33381986327126983
-0.19560770307058464
0.35449491769701147
0.12446732076540823
-0.8993179667093041
-0.7456955728929048
-0.46689356013432437
0.06166865297588174
-0.2346277656075453
0.2616912185307328
-0.12970333468733508
-0.271616848570771
0.7718267684939287
-0.41919824018221474
0.534620781265804
0.10600731664826393
-0.7803527969627815
-0.34439441330110254
-0.28342442913351856
-0.20713917882607827
-0.9397596362826474
-0.6767551215724232
0.3390109817916653
-0.721264777370414
-0.49806297546850997
0.7381128202775622
-0.664752115953232
-0.2116052087217881
-0.05192636919431269
-0.49996575832893553
-0.37294851228890535
-0.08649156805493059
-0.1711240707473711
-0.0552061464217928
-0.9212693992660383
-0.9197634457879981
0.3810158017523771
-0.03739351821859217
-0.6183126316422751
0.10304873977826957
0.7237126672335061
-0.8796069413815434
-0.612701077975653
0.5265058898481753
-0.47598197466025804
-0.6870637976342839
-0.03734989984139755
-0.3123513458701398
-0.7347083078384534
0.4885006087670149
0.4594105548709934
-0.8166528195713687
-0.4071698274381419
-0.39356534673505755
0.2855160934614504
0.8286908394137605
-0.15411776702252789
0.9668343822944704
0.7343627802572782
0.5007569846273715
-0.01799266469365435
0.9609860812273541
0.9044168594260886
0.2877347406159989
0.9975567027953233
0.08641220002728277
-0.4407804642768293
0.7708245939126974
-0.8338310492950172
-0.16843801465014102
-0.319549571497664
0.6285032978547136
-0.07331825518916227
-0.9702273707330105
0.07273068972071918
0.13238413183837042
-0.7669684061077617
0.3152638228342343
-0.04808782037935838
0.3483341196864703
0.26214683377076786
-0.039996817207378174
-0.43155103302044545
-0.678317322726304
0.6014453110482958
0.1027535413436258
0.8010558648120271
0.8053906031486755
-0.2986578510842962
0.5214300375213601
0.6113322239246971
0.40521607207050814
-0.3982640951392641
-0.9354524610059604
0.31501825418605556
0.29301327793224097
0.12903409269029764
0.5767821219910289
-0.6236052358179731
-0.9436110502235893
0.15234792778879302
-0.6464911824987868
-0.386548334498069
0.8003639783115768
0.2371218301561189
-0.10867667550188213
0.047012296745828665
-0.7668379861687262
-0.44402024814375246
-0.8182787706238479
-0.14641865882509167
-0.3890276875637603
0.7841232802671821
0.8374128839033022
0.1527598395484249
-0.2895901966832738
-0.5638816775202729
-0.9629654969166673
0.2746099959940306
-0.3120025467759185
-0.6588434437094058
0.24315178636879517
0.4777878047418848
0.18731486554382598
0.47822791115069097
-0.2600515013381292
-0.7268969387602175
0.23541381185301513
0.6489159335089603
0.24659334662748114
-0.9305304693324321
0.467092318211587
0.43499119935557423
0.8129749684036504
-0.9759213081117191
0.6801517346706336
0.8532497206801036
-0.872829349815241
-0.6568307076476682
0.23486111965483975
-0.944862273187983
0.47896133317678335
-0.41470163523138914
0.41537650568573964
-0.3664992487604592
-0.5414070019972859
0.5204429650799721
0.1420638319223524
-0.6237655083144839
-0.9808939400293567
0.9007805709853818
0.44356593415029993
0.08335819122547446
-0.3343000299352634
0.5974655587799768
0.7887499297414876
0.14520437557157562
-0.5722604024766469
-0.6040436817410466
0.5557433284398394
0.22396067325800653
0.4001427992697961
-0.3205040803769451
-0.5459410158604359
-0.4799600351745589
-0.7280200983482633
-0.2626140851000543
0.43345148415071744
-0.11816700657205295
-0.25591398552140987
0.5848085539872461
0.5886295145999676
0.08402683772243434
-0.12998802320648825
0.071602811520384
0.7209588739465485
0.9147827538654556
-0.21326495079246977
0.03844329456168045
0.25757069053427395
-0.09458523982088167
0.11197147407108533
0.027672098440482178
0.005219065017897103
-0.7361904490187288
-0.97462636115008
0.7501524949140785
-0.8888552260386348
-0.693050573681549
0.45839360204308716
0.8115836472624183
-0.7116915178164628
0.5676464178301195
-0.6711301058408671
0.7883239510623646
0.14829940447247253
0.0728682713215499
0.16110277914710122
0.9827713527411741
0.30543203316525047
-0.2861397730647625
0.9354199618617728
0.11598817274087317
0.6475899211158666
0.6520790165928609
-0.22132958946188114
-0.22708736189487666
-0.9980284192738728
0.670192731371759
0.3262959553819553
-0.7609114292525779
-0.6277624480526484
-0.35779900201240655
-0.4165916141039185
-0.10961549581758882
-0.5341131705821076
-0.3631606535694072
0.18748014553335077
-0.21817570728209656
0.18618518991139318
-0.10262480985629538
-0.893581334173254
-0.3801371121177347
0.6062523437467908
0.22225337841802395
-0.6419348447198314
-0.934296757196718
0.71096726954888
0.8272160016244225
-0.738271515042503
-0.32720524519784283
0.8346344807806867
0.3786986012976265
-0.7809051441686267
-0.20231190798585186
0.2982256017113122
0.7952113988213259
-0.13659169632869436
-0.028531545461336922
-0.9108693366136276
-0.3717908208264699
1.0146342448499295
0.6288348262647221
0.9922782522432896
-0.5751366399638415
0.4087149581874592
0.1625374186561644
0.5538843029030842
-0.896239430713776
0.23817931287440955
-0.41967925554866575
-0.2795698647216834
-0.34525517492635044
-0.19960450023205614
0.8878773809626043
-0.6504113990581962
-0.4733211970840079
0.25204539688380106
-0.594482143239604
-0.03523426164982323
0.3054265591174346
-0.6511097947818771
0.9610788118505583
-0.2519679180442456
0.009878939996002223
0.040525437467715274
-0.918190466794841
-0.6141962532612402
0.9844951967270201
-0.8792725680196701
0.4417951025822969
0.849284061732137
0.3481950116268086
-0.7080149627843223
0.17485949586225144
1.3919868073327443E-4
0.35378445290300237
-0.14711039598331105
0.7541175812926607
0.7380030917558446
-0.4948582570765569
0.9483654641375083
-0.6548193005845693
-0.6788933715104435
0.6881844582452371
0.0693378718843895
0.7816342372191187
0.040015555792566784
-0.13888272161411777
-0.7705356080971525
0.36122352369649435
0.6545891505854876
0.8630423929247243
-0.7868150397609079
-0.615430071398872
-0.7664743108782425
-0.7647775411674138
-0.15745488474948768
-0.23507494469140752
-0.3791918580263694
-0.3900646676509681
-0.43616459753634157
0.025589246253234544
0.03252036584815837
-0.6939919284598421
0.3360989236532986
-0.8317820247901897
0.09258848707510618
0.178217182010749
0.995644641306193
-0.8055362771347324
0.9365585229413376
-0.8018356663040875
-0.39558928199936555
0.7703462714721422
0.11798122482938933
-0.5440154005887601
0.17654440009383582
-0.6894706862432821
0.8386715225997764
0.12729144524675115
-0.5445108881685327
0.34684156733003
-0.5875940811485628
-0.6557233840580896
-0.9028022854107637
0.4795844837750167
-0.12387596075392533
0.5432011876907695
0.7615401773710554
-0.7776206813032331
0.13513815171235874
0.6139810508940685
-0.3497532308087273
-0.9002508182843018
-0.07046749655819975
0.9088364708950336
-0.3539066923719564
0.34236004819979493
-0.18666451651490662
0.12700627686529856
0.4063620571544437
0.5594173673152976
-0.5517721833441751
0.653939194091847
-0.5146599785339321
-0.6847807925091667
0.9025468291948576
0.4673142896454827
0.9299722659908861
-0.91123254351362
-0.1976117620566818
1.028731639064549
-0.9092759206416012
0.20013614914840103
0.8213153963667861
0.10502672648035963
0.9111615426168125
0.9242282206172054
0.8728668965450604
1024
-0.696011702454847
-0.04391586050476252
0.6384352170057517
-0.20082341101748494
-0.008489888782068307
-0.6823550267744676
-0.6749804397607406
-0.06731972565423229
-0.039620301406614766
0.36733332912031125
0.9098811310558573
0.7408865511506325
0.7212527984785729
0.696716132300444
0.3873409389906336
-0.11643619478576966
-0.9514335198058672
-0.3147135036423286
-0.8054430290599992
-0.7404638483744043
-0.5724036854411904
-0.09574778366311555
-0.6267752999470274
-0.40884095034716506
0.19749898622252582
0.4455783531573473
0.3306765433093535
0.8845919403697747
-0.01555688078417682
-0.02588911580346412
1.015699801907863
-0.09123076773244063
-0.41324821492994207
0.6811175993050895
-0.9496083702844571
0.8344223843127982
0.21019823262143605
-0.29338481184311394
0.9599481777610127
-0.11470817178123906
0.4557169395794156
-0.043959442793775276
0.9823505189555272
-0.9418893759215414
-0.5477452824635111
-0.32693210522511545
0.8231039624434531
-0.07581253440859671
0.4705136686224988
-0.032280706567045604
0.1950427937043123
-0.7813645418421632
0.6887506641009644
0.6930345409571993
0.2339519100438595
-0.003924856684021818
-0.32444065879184314
1.035411637608424
0.666448825209044
0.947330982101416
-0.7397920443975826
0.7253660636864142
-0.8841832630041621
0.4397106478421619
-0.7728488184919629
-0.020566212106967418
0.3362578636827344
-0.8223866451370156
0.9618184459182969
-0.6650572742606293
-0.004417043715040414
-0.7120325953663914
-0.05134967795775718
-0.4450513349030682
0.5996439094723619
0.7715456974107309
0.38953283108137066
0.66374291429975
0.44576945625156283
0.9437299980687422
-0.1249366893705939
0.1171220860635618
0.9645223289334219
-0.797345723829636
1.0153284327482281
-0.39840304133515464
0.2707299710404042
0.653883244502514
0.6064881392113832
0.5850515060510552
0.11399892699138836
0.512858509371242
-0.5095079409190306
0.48533473664376997
0.9485853865723513
0.9320574323973697
0.8428797246629262
0.3349301720562175
0.9272173681508983
0.42578011184181763
0.16570150112666096
0.2522141361143061
0.5302493886205328
-0.5777516190857676
-0.004400148731200734
0.33649697520105054
-0.901066557385777
0.731577637354077
-0.5616486970085153
0.49744244279436145
0.756675673561235
0.9359906397147082
0.9403011908001132
-0.2514639931855755
0.2201163296147794
-0.2156624889373341
-0.8451968953689036
-0.6631304853276528
0.5637913673532284
0.7320626265600221
0.13386036884778416
-0.22239811595777317
-0.342383600101428
0.28321480426779927
-0.8682417496205405
0.028479433753543757
-0.425466326078107
0.34879081947811463
0.8321343223360947
-0.5209142774531537
-0.6634648674101474
0.2857780604074299
-0.29877665804921943
-0.8905562399704885
0.9330261132472261
0.13663474860932182
0.8807944500033233
0.6635441215128943
-0.9590733134325686
-0.602456892265986
0.8998093759678438
-0.4788658030884928
0.2511255518134378
-0.7474915801607219
0.31295101806511433
0.15737842421634732
0.7041555776096209
-0.5364324380496236
0.5089480982600705
0.34367041850376057
0.33206788088407163
-0.8622798988159793
-0.5705948855592735
-0.40171824408304496
0.41795886710270574
-0.054738532307563086
-0.30249523072286616
-0.5130266047445152
0.014835498090843412
-0.5011807580949917
-0.2785607768224342
0.2995299119355732
0.038205379773419264
-0.7821065535805558
0.9382491326592814
0.7290412786968838
-0.08547056007315287
-0.7836256686897097
0.367343163260788
-0.46549157318082546
0.16994405118066727
0.6295893933941014
-0.9250259851980249
0.43518841873225267
0.507684999468094
0.8180866740173415
0.24095104182919047
0.6131942137574785
-0.7568020019528275
-0.42981823247376266
-0.9578494258967986
0.8980509092408258
-0.7809489568130114
-0.10098715267745335
0.5520144046832658
0.7490132363478024
-0.21769262957360522
0.09534067484512863
-0.1799803457011334
-0.6288190193398919
-0.5461532480965214
-0.3615127910291811
-0.7742659646343124
-0.4432913130714646
-0.4327358940734469
-0.42100592110912194
0.9431437902897291
0.3167298083787393
0.6481399388657463
0.035339942128108905
0.7629180485053787
-0.03684712213207815
-0.22129340720631221
-0.051999355354876924
0.49621893568040004
-0.45994404424996826
0.6520546702378436
-0.8935399800442464
-0.13781248460644452
-0.8655999116123678
0.8569577895170687
-0.6881982410422567
-0.5094981672163102
-0.6785948903256007
-0.24049816958743075
0.1592531628925918
-0.12881606046476646
-0.24766370678226998
0.2071166325095689
0.6621528366969863
-0.4784340421384811
0.06821982922699302
-0.14661473941599326
-0.6038255121504776
-0.25627372668524584
0.8439894199546935
-0.5822496312560288
-0.8676807360050527
0.9197338023822075
0.007728777470500094
-0.33555915059063596
-0.565213646468516
0.41973989770906356
-0.6071021108445742
-0.4301621539815021
-0.9519499294468157
0.5472163550390958
0.3340553688807548
-0.0382995505708579
0.8991439426466551
0.8015365981485874
-0.33151811859708624
0.14662580293608163
-0.0636706238529089
0.12820831521274145
0.6194647791628584
0.19246406940896502
0.2405080729282195
-0.2022755382452533
-0.9341488427487493
0.0013480509537226867
-0.06782223907356914
-0.7905386732225451
-0.20567659981784037
-0.6813302392107968
0.3998121066538256
0.3246235799085358
0.17650104855129614
-0.7575055382741818
-0.8172845496398669
-0.8490684685459048
-0.10001430623325391
0.10835642602799739
0.5907191508008836
-0.08575634974709484
0.2842104212290485
-0.9354054695724721
-0.9354567102121073
0.46640480246728955
-0.15921986499491783
-0.43301048198791264
0.48935175922188157
-0.47687164986115305
0.28501036244432154
0.7483147690720587
0.9406247841012864
0.14600577329920753
0.46836046657313013
0.5399662366950437
0.9039518170020554
-0.8904785424054781
0.2263447877257222
-0.6847213031521964
0.027819149361911804
-0.9353450734752865
-0.845228477017126
-0.32203537044191377
-0.7031806481212017
-0.8994120001210707
0.07060722226297661
0.643200230156196
-0.8344399540493804
0.5919942303487069
-0.19370022682381402
-0.21349045740565317
0.18532679358675988
0.5668078012837704
-0.8980681686320582
-0.5569231499177462
0.47493180539009455
-0.7853875377098306
-0.5916219728266773
0.44030060120537157
-0.11908788939390305
0.09056373116473343
1.1143354808891799
-0.6955479727258247
0.9665889488778255
-0.4872376543574793
0.574398216975304
0.4194719096817793
0.5937144822612513
0.049508635842104354
-0.5773179466996352
0.10433041099208523
0.8497241888138408
-0.9594563363839964
0.07448430454044253
0.7334334001895522
0.23662877362455872
0.40013823716673186
0.13300091706436332
-0.5552967266739802
-0.2248053051602323
-0.8053023769864803
-0.47041724667071827
-0.7459532480101778
0.06934784378563527
-0.24865370167209241
0.44292083762476564
0.08201881865349217
-0.7789036674091699
-0.23318538658140717
-0.08399990374265862
-0.10162023115296781
-0.29905693914302905
-0.6416546299328512
-0.5952258641661287
0.02942045841248706
-0.8260234795420496
-0.8769605683581859
-0.7488442230595223
-0.3584525924553584
-0.47361590415800575
-0.4794644351443627
-0.8745004562684612
0.8432346952618084
0.5052903207854897
-0.8395992414883442
-0.5447108799226553
0.9431197339025505
-0.040042452097225345
0.07926889606477429
0.06123128801292752
0.4614842472402097
0.466185900161597
0.0683457098884076
-0.8731888398147244
0.7312334190236432
-0.7910603141579713
0.3420501035093805
-1.0695917735887905
-0.6117776647387695
-0.5346914396104181
-0.4236301019164022
-0.37665749587141717
0.3327336785851157
0.16339119641575872
0.7777416148892562
0.8009720435114202
-0.29298621243003464
0.9099159443727998
-0.37326592179852
0.23341983117874546
-0.7921214062769875
-0.1422853377964499
-1.0299345931655481
0.70504972077658
-0.3676448722916425
0.41558184289913047
0.5716292994620711
0.969169253308969
0.6406075203750565
-0.7155283952167633
-0.3320155587548608
-0.728109455394942
0.7422206906052154
-0.40317252245613283
0.7450394031806039
0.2801189564414643
-0.6037999534025561
0.5105538880131153
0.9377652780806235
-0.05044389111607608
0.04000249582551179
0.6186189193422099
-0.24114449020794546
0.39076575732743213
0.9971054823216213
-0.7643492376317538
0.5903228636656569
-0.9849218782631158
-0.9389060521616933
0.25903551469827846
0.8192569049559955
0.07355191643696521
1.0001086034874553
0.68270197536563
0.7770143074874776
-0.5639135778121859
-0.16443269330623425
0.5573256359202043
0.8849348337105353
-0.2720368821773592
-0.22092550130024513
-0.8174001337655973
0.740788888752323
0.9126251723853964
-0.6741951018220508
-0.8752010307814437
0.6392536386614869
-0.08872079649718109
-0.6269291455986244
0.1723236096216282
0.3587071167634314
0.9365685997779613
-0.87525661132921
-0.7045024698107736
0.9538586058509394
0.3538251274999945
-0.40832615270452666
0.5664251104477451
0.5329857080382095
0.2960938342878223
-0.9554895624312686
0.8162111370002737
-0.5899485636782842
0.03743393796073609
-0.12096749527095002
-0.5520106959628763
-0.9524070167651504
-0.255407363814251
0.24763640013269136
-0.284949488267815
0.1328122186711689
-0.8417546059671434
0.0872410024195461
-0.7343937916505995
-0.12140267458889253
0.42713608631530764
-0.3782218156320991
-0.4345969211019665
-0.737746059312719
0.28673145454441246
-0.038540620279249115
1.0162217897104875
0.8875323239188617
0.8899916944346491
0.374407345380907
-0.43702855708458993
-0.6709177191257701
-0.8394438332881219
-0.9517526516635744
0.4792126081618331
-1.0403808506639909
0.10836283644283945
-0.7998864798772117
0.9738862769857276
-0.814957238239585
0.47694142622461205
0.16240356364645667
-0.08693967439500629
-0.9448486090289859
-0.6768410165410726
-0.30574524408928755
-0.30483668474288633
-0.768963096993337
0.6021859060417214
-0.2716881028722675
0.8922459948441741
0.3485956805055697
0.7112576396130955
-0.00480760540683146
-0.25931167771368396
0.5804372244222051
-0.4688563659898508
0.3240585779296614
0.7957797073754751
-0.24927229013079627
0.7024501961048919
1.0452078674328893
-0.6147555412594117
-0.8103532467126026
-0.09910000461811826
0.2759449725526257
-0.6658975190305827
-1.1475637771773899
0.5216401747933122
0.5688921237435037
-0.1580051673065517
-0.055735770262564766
-0.33157595053404415
0.8453944095730512
0.5426345934690714
1.0574425374275311
-0.5564265071588264
0.2944877560766394
0.4667859461399319
0.7649826672058501
-0.6830794364719592
0.645610843096967
0.6086617100778948
-0.16764752445595937
-0.47182533655140846
-0.7800048775727777
0.6926477826052949
0.08444630901472898
0.9919035726419434
1.0772058281636376
0.8562064943595259
-0.6914433922552092
-0.18562341907567514
-0.6317617210161475
-0.007663159244330235
0.2962105281590046
-0.9405086511103511
-0.4679721477492893
-1.083306466738364
-0.16335422184709175
0.08672933941555566
-0.5031820630517964
-0.49617042505340114
0.8584294873494591
-0.6534596120049111
-0.8809202502213158
-0.6755284313688462
0.6135328404560819
-0.04181265950184784
0.9183498995333264
-0.3661165277727705
0.6149756020988485
0.9114439303722063
0.13392342021648926
0.23522746544799267
-0.8809363249888608
-0.28212084238718527
0.08537451071125371
0.3966478286182027
0.5170698878412193
0.6756428553562565
0.023770765325673498
-0.7581266751000777
-0.3715017779225301
-0.6425798706783397
0.44451121054222414
-0.2821503271971034
-0.4901867299353198
-0.5234140036303236
0.5654819009437855
-0.9823500937372119
-0.9785900748424167
0.05431830730758131
-0.59843847726449
0.0889493178398033
0.1789594356706073
0.389763554862018
0.3660984507827662
-0.7607883067472525
-0.4226685321848777
0.7399946687171483
-0.5084369390946507
0.2519273616193073
-0.2807107832865803
0.303641839409782
-0.9070712975787226
-0.5544727380400338
0.9215700541715404
-0.33270452193589667
-0.2422348169016877
0.7926153608448167
-0.31465715070648403
-0.5610970955192467
0.3152861559648624
0.40437209229576904
-0.3899573877997963
-0.11396910598721348
0.6848870568194899
0.04947609492389548
0.8851428989972633
-0.37148631849685854
-0.813424667714536
0.39275905740060923
0.23903518741387747
-0.7034317445737895
-0.617796646967497
0.8146055599773518
-0.4856318269885228
-0.7520775493556564
0.8252419515192068
0.20271859146784874
-0.6434206296153753
-0.3633283819482822
-0.4563657567371277
-0.5229924020153719
0.5254651105091767
-0.540445440406144
0.7525232432392766
0.6447029677264078
-0.4297637737322537
0.4011687778868294
0.5864288404114646
-0.6147908545536475
-0.9401336268042181
-0.4983991332255962
-0.47271643599136065
-0.6813601805367078
0.6506392431084319
-0.3542126227747808
0.486164478470223
0.4458341243066827
0.5299790194161951
-0.6662191932145806
-0.0759162175419093
-0.2569514301119134
-0.20640610437065982
-0.5886068284317372
-0.695719177843406
0.056697595167844755
0.5571094288524222
0.8190889906617912
0.6539490655432018
-0.542915428095232
0.7857555804815171
0.8728116932076772
-0.5937649016555387
-0.5167031208787023
-0.03194294597396663
-0.9252335182281389
-0.10091331717523958
0.6866682724794199
0.782249254268522
-0.8539065459754
-0.7810513854688144
-0.607774304269179
1.0137196760409277
-0.24009223160660934
0.8336866632565819
0.17579163411242915
0.6580474880001063
1.1518774045563758
0.008342610450306286
-0.4720624802761571
-0.3329169942056786
0.007658151225199075
-0.3343511919114745
-0.4578223498768475
0.4584426561152271
0.7092763669432021
-0.8901102931807681
-0.41905430143620903
0.6240177850105425
-0.15574568438148204
-0.5109124925868781
0.39728287913606225
0.5510799995844478
0.0292963343605029
-0.18635025129651106
0.7153564121026986
0.9183168042537774
-0.674069127518633
0.4624592451593786
0.8070916145687833
0.27613714621934565
-0.5635450348629326
0.48295059060499995
0.32442203457407914
0.18994931434977175
-0.6512546169168063
0.8570042442921563
-0.4914797957704598
0.7848834510530197
0.3493270799046944
0.6629567175601089
0.8743781421978208
0.259182045016646
-0.6742436557557901
-0.4814029946998627
0.33535134526211124
0.5313876050912998
0.49586454106962496
-0.9197205721182568
-0.6127070025099647
0.2176698829574947
0.7854589764767451
0.5300853048151362
0.11591720903155243
0.004246179296399338
-0.538348514766419
0.06889217183122398
0.22768980614297554
-0.03245432178426248
0.7337553090036038
-0.16669877280839795
-0.8427701278409373
0.7543831180811554
-0.44078464023132174
-0.293736431450761
-0.8905331118914089
-0.43408210431865724
-0.2819721397941985
0.06522425800505033
-0.14160166283436432
0.36960630792828625
0.457652116219528
-0.17967388802197645
-0.8409923484563702
-0.7933933097260539
0.5524707460731877
-0.6921740949365971
-0.37569378133226744
-0.9863769142938156
-0.034415461484312536
0.19305767367132032
-0.902556279994186
-0.6937652215828923
0.146572336271456
-0.7892883232131276
-0.7666842427105052
0.4512141396510092
0.12728786104888787
0.6431762819467494
-0.08667840762371361
-0.04487115201591052
-0.2180362017793089
-0.4230238216728717
-0.14290181587387826
-0.7012592160623428
-0.19289402845799553
-0.6719867423428477
-0.4294686855597998
1.0145717400611898
-0.7392074459701774
-0.4277428655463072
-0.011213506251034639
0.7082823269083962
-0.02835209833967937
-0.5600619088942983
0.7311896446322572
-0.9669828814044438
0.3036501996253913
0.6084980878918735
-0.9048854139963857
-0.8871185142568953
-0.7713086741970409
-0.8350908843296981
-0.25671919067110616
0.4313421619348245
-0.43646401949666436
0.18732201406554475
0.29185712032864736
-0.8973185827153995
0.26182101736377994
0.43608031495423744
-0.39682917902004905
0.8925978671861592
0.8168143566689036
0.5331557765782883
0.5383070091455228
-0.488892738819098
-0.15656275780629414
0.2843338089897445
0.659591144357316
0.49621563662011325
0.5387776387908348
0.4748648066416763
-0.5142736563149913
1.071119631721365
-0.5664090047244285
-0.37157719791166255
-0.8991046434546937
-0.97689758249258
0.7035043150652959
-0.038379556702709504
0.274944027511124
0.7732416654945936
-0.49574080450898844
0.016524623063601987
0.3088263374903932
-0.1460898625626555
-0.979302979689993
0.9977840743489377
0.7195135233110725
-0.5338892725296819
0.17390245009741254
0.31352458921465
0.3578602903502121
-0.591076417311779
0.5197515290252895
0.5971210872864187
0.35511594180865624
-0.17384236410357337
0.9167890348637714
-0.28533485819768983
0.9335492916994591
-0.6804628305659
-0.19426783537437603
-0.38500295962381825
-0.13723879876931566
-0.7214049114777609
0.773122501686961
0.4958718757521759
0.4548223782076391
-0.9979953764676589
0.33480203595853525
-0.8731937984722237
-1.0003057672561826
-0.7199749324430722
-0.7777427571493902
0.14415984286931716
0.3877397684655546
-0.8193738257401368
0.622273766745006
-0.06280331078000342
0.16925448710242566
0.189916091998398
-0.29129964672766895
-0.7441839367860315
0.6728073754782434
0.5485415830062051
-0.9613906946234473
0.9637842801664572
0.5427026853713739
0.6222045000864987
0.3155179776698569
-0.7030463414030126
-0.1877578959703084
0.4755716878769513
-0.8407549974540905
0.0023603876090837507
0.41718601028366703
-0.9861814392356579
0.687961263694471
0.6012991550425585
0.16684839260811682
-0.4761001755292253
-0.7289991319389404
-0.6000141595281315
0.23268881220176546
0.5045732745817282
-1.0446099254170829
0.789387083217224
-0.44611316705749965
-0.17388558174847107
-0.894155366506697
0.8828990542727531
0.41743052551215726
0.19913043795341712
0.07322814348344668
-1.0120148876173805
0.7960008361826356
0.34304433139456747
-0.5618470468451707
0.7225495863581767
-0.6102632912971643
-0.3470955033068713
0.5499041529045426
-0.05986672926514723
0.9610409031921616
-0.9590347949270026
-0.8070576568139939
-0.3818951182927395
0.21031843022455599
-0.6313501658299507
-0.7692935100242825
-0.22586213432582194
-0.8061388264735988
0.359709741182765
-0.925891157192297
0.5812527179702001
-0.8612769514377873
0.6799680609128929
0.5539879158409586
-0.10050934737366782
-0.7853312448421872
-0.17593091011761183
0.7438952467832686
0.3078992390568603
-0.0024231902677266885
-0.9998085207697913
0.44974376664606125
-0.7773929723724354
-0.2847360981127864
0.6778406757416853
-0.36674408952811904
0.14351156604763757
-0.11000370230292729
0.08104040810003346
0.7924722551764289
-0.9211533816959341
0.5128242350061876
-0.8008485345622047
0.05650793864733628
0.7339534604728128
0.8203335198406617
0.7213040265629281
-0.003011740352135153
0.37913154949147104
-0.6609397723689809
-0.21390371806351816
0.7696730602480866
0.34523412860282016
0.9185002828708548
0.43858121236738523
0.9821017968003755
-0.21545892019021246
0.8448367823049722
0.8754096731173135
0.4843088242157354
0.6236760097010927
0.7206711401439806
0.7160016290683803
1.0307730412299339
-0.7929359410104356
0.6207391210754222
0.691613024550671
0.9823510323032092
0.3465984696981036
-0.38197405983021443
0.8689583908397226
1.034849438910544
0.4786215299581407
-0.27028020070646197
-0.1279573305388802
-0.7713279354817565
-0.3617128060315007
-0.7972110412003685
-0.6322541928843445
-0.3524152773355336
-0.5430222443945367
-0.8904460503640557
0.203051451077365
-0.37421757071236494
0.20998922655771973
-0.8731398352749578
-0.258743702751323
0.7736795411969927
-0.9099426744856055
-0.9298494234838716
0.5243840593649838
0.1474910474135648
0.6087295893740099
-0.6924167389359358
0.8336598080015888
-0.10859761950517131
-0.24158189903119967
0.8364429965452911
0.6863159531978482
-0.7647662721526088
-0.4459257290520309
-0.5589473728140153
-0.14485571761917115
0.6076388784453841
0.4272647879856401
-0.07109439572995319
0.7546820696815981
-0.5038130595762645
-0.8009980925819808
-0.16787457145651372
-0.9598712650628327
-0.3951024210221482
0.9654883240738268
-0.08825933707137561
0.4406978437136019
0.6803166931383056
0.19473553724580558
0.5614421047603797
-0.8091675161149836
0.8264622305264997
-0.5005344463270313
0.9197849571235448
0.28082144917135843
0.6922866375259765
-0.1772151068494781
-0.6021629404592194
-0.009237327447848456
-0.28817156277705996
0.19880758168564303
0.4903269882707394
0.5969975758847673
0.04457655778397365
-0.2568948611112022
0.3399312909086184
-0.7479203249883994
-0.7537849879870824
0.6119575999002704
0.24047182214084095
0.821333207034664
-0.3696182378880502
-0.5612254905062254
0.551484032355716
0.16756506356722384
0.19378848917306862
0.8096937865513832
0.7776968544926224
0.3494606605787184
0.30916458637496763
-0.407226136413163
0.4631159699684442
-0.40581229047769873
-0.32747819739378997
0.5233202846224864
-0.40167835341785485
0.4093453291218882
-0.9525208153543581
-0.2681906139499404
-0.2028271567329458
-0.5230194495477155
-0.3604895401731856
-0.6853863975312341
-0.6727078822617903
0.9542694645839918
0.98461869754267
-0.16005399469348047
-0.82362438705035
-0.45715460410305114
1024
-0.6323985650595357
0.7238972296180491
0.8123511459018388
-0.7417834280957302
0.3964300325937512
-0.4564323253235533
0.7714619707765099
0.9390713221085387
-0.03756650296970742
-0.19571995840816533
0.8469099074915383
0.171095649386534
0.34386463272158596
-0.5654806523973694
0.5076248614078206
0.9619015495225657
0.01147583347186906
-0.5283284169767049
-0.3274980760187933
-0.024946301025043676
-0.9703226181639368
0.5226634604777757
0.2636964639662717
-0.502514917260852
-0.2661587746715938
0.44580552857118627
0.4127848356719925
0.5116035613679333
-0.9020173263746158
-0.1138091243071928
0.9797515682194986
0.09106186872990357
0.8029653429003524
-0.3819335776013659
-0.1952797779226049
0.852352417292172
-0.3485086557202059
0.35335315696299413
-0.07664334507435386
0.7278651606651143
-0.8982868382006165
0.9939054331440307
-0.7718473158033136
0.6436578621497061
0.3011484949451765
0.6936256632995389
0.9556488976297679
0.2277680268421481
0.8555085435854258
-0.7047769709513791
0.5480688033573188
-0.8102213203974882
-0.057450135970867795
-0.242798732958511
-0.36052029171945343
0.9561728307543492
0.976760981003193
0.37843918871199367
-0.9423316075843096
0.4093393779988391
-0.517029595386116
-0.8215309373157511
-0.5565874942845689
0.5066826443838323
0.740099711081231
-0.9339900527292093
-0.29979185089833416
0.7984577955110623
-0.37290525075710573
-0.33703461358096154
-0.10401066221683568
0.9997566942526063
-0.9815411092402543
-0.48484129524570185
-0.18859254528734254
-0.6962340969639453
0.39613837932346857
-0.08926764072568831
-0.34238302746469845
-0.013846084301295252
0.9839704849474041
-0.22101065633752756
-0.48415684642705115
0.925707545362897
0.3823205178320591
0.2791402013362064
0.22267640928424273
0.5439719565339167
-0.6503669988192892
0.6447518184105259
-0.14062504636511722
0.5253594151206362
-0.8173726505363126
-0.5005968888170865
0.7183853065367153
-0.8051180987525763
-0.7598707053338847
-0.5571444292923406
-0.7789473881793925
-0.7128750681462629
0.356634663066198
-0.6658005969042458
0.07525786572885862
0.9321035829746869
0.8962306671899708
-0.005235202253114145
0.8625609638705847
-0.5898472259221553
-0.7557336422471403
0.6804075474806119
0.18311593592509584
0.38305679598472375
0.2254965213555069
0.19628177277421344
0.9068090625163608
0.42123126753815116
-0.07004031431650247
0.7152764468737716
-0.5540336468360577
-0.49939296406280004
-0.19488679337590298
-0.6438105372870406
0.9476803670326022
-0.2365815158343165
0.4393207047874223
-0.28441505930044186
0.9228782348593124
0.015817994498353603
0.38139195204121257
0.2648041365306295
-0.33190533628376023
0.10027853077376972
0.22358842289919548
0.4475627316515622
0.09103760329118511
0.04833181066590931
0.03589407936426043
0.7219036591013384
0.26865726531226264
0.770877136438253
-0.9261308260116071
-0.7711399635518338
0.9578722467275174
-0.12132262864860889
-0.5399682743884507
0.20300221479142797
-0.6810109160430993
-0.8927352435049954
-0.9300776257229245
0.9628288482831839
0.599388468896933
-0.6722802232406866
0.5484757043096021
0.209059400272833
0.9332269782757874
-0.30993525426395513
-0.18214257441783924
0.10220453740959178
-0.1833706066546957
0.6330676871975419
0.6272981137070059
-0.006647218003236801
0.4321984196651939
0.9232620649623862
-0.7637641549570551
0.6984262509445178
-0.4356635929026224
-0.8820252272105268
0.1404188743172305
0.543278166262012
-0.7590042592258657
-0.8335933961488056
-0.9245383896931083
-1.0386398960022323
-0.8459792781713886
-0.5747943687279854
-0.6834085755976235
0.11742175693214961
-0.5156063621980987
-0.825484773954293
0.7800056315200637
0.016882799124331827
1.0776125845283198
0.9312023717488895
-0.46436557662646655
-0.38583637648468655
0.7019049545252262
0.34586625853969405
-0.25841963538291907
0.9424199431303675
0.8719343148420924
0.8239979386725462
-0.6038032308436938
0.33186340279698334
-0.9672761924911493
0.304504565484767
0.8401679504022261
0.29385069137417347
-0.0014170526332843503
-0.4648862931232079
0.19045782275177803
0.3979210602515507
0.4915193094467268
0.34558487075973804
-0.5600034049759532
-0.5500393848354203
0.6588633001634973
0.8472262467663654
-1.0653334495461084
-0.69632366972334
0.35634888126986164
0.773651505916256
0.5083018419672688
-0.13283332061808387
0.21052786261235068
0.14166409564631324
-0.38292000869057097
0.4557325642910708
-0.11419568213304263
0.3284718249266165
0.7587641748606644
-0.04926361450429456
-0.3641175704765162
-0.7207205184299629
0.4491635104483695
-0.9324999263086623
-0.3708866712402043
-1.1008818456695053
0.21484967492117368
0.2755480108428483
-0.5173126102818875
-0.7871034581558968
-0.07129963894043927
-0.8174546291641461
0.8139542517698278
0.5804703015324871
-0.12847442437900133
0.050317820858155185
0.9296850641580777
0.0521063336413368
-0.37756403499705016
-0.6937280054011794
0.09085738304666127
-0.4218583184551211
0.8687648496422239
0.27686436930033786
0.47128041943284
-0.043522805394029335
0.1935114414584637
0.17081204644040018
-0.3707042651792983
-0.4712102925724852
0.18576417500933096
-0.0781160346208947
0.6917133894065334
0.8818117545608123
-0.468993890171381
-0.6562585244640956
0.064081878566924
-0.6891895301236651
-1.0043388060073155
-0.5643775513716894
-0.2634291409621791
1.0616623271101437
-0.4179902394672691
0.2553201060552451
0.20925269839177937
-0.6639896031901346
0.18152069078322577
-0.478733213752313
0.07199823470029565
0.39877612952267105
0.6957494727568234
-0.616856958229308
-0.9140054332752704
0.7307247084778601
0.40002592228318423
-0.08045966161978435
0.7399874864428642
-0.5662411697739463
-0.5414676978206909
-0.34168579807833827
0.16240680875823413
0.46582737580630473
-0.7302560080319417
0.923634888527088
-0.7811970009337674
0.4945785129619912
0.6417166433916471
-0.45150237283157013
-0.695153196200125
0.4146570985703731
0.6418921980678318
-0.3488304088649903
-0.35293023509103416
-0.1786020531840733
0.1978476268788577
0.18017463621555638
-0.46562320541363805
0.9407792460621973
-0.21194236115380158
0.8590743465174269
0.7304353085053545
0.7210507469021094
-0.025100320670921702
0.544576986211246
-0.14815752862332948
-0.40462474979412516
-0.616152476293684
-0.08714617000782153
0.048965866682544594
0.47147221155929847
0.6347703263237338
0.22823143950939603
0.6243118915542946
-0.031538048158860646
0.872717996794413
-0.7569388960614442
0.8098465008880368
-0.8299153190347643
0.7940467720775995
-0.48913949680379304
-0.4883625668029405
0.37434541691663065
0.29474843326522754
-0.14425165827330486
-0.5077998066570651
-0.3995440745920169
0.5843267054079534
0.38965200909928516
0.7028605693031544
0.6431906915773024
-0.08098060204647294
0.35866938378549224
0.15849337800759372
0.044252608949802326
0.8638799941701262
0.2075852688337888
-0.6247198261829188
0.7868408729319418
-0.1947037366392589
0.031897089328448563
-0.026231692506740515
-0.25029537941838736
-0.4769376278029441
-0.5335513891479474
-0.6153771263629166
-0.6675544958391373
-0.3535496323216021
0.4194426580714467
-0.007486054856342316
-0.9152242956048462
-0.8282047505383147
-0.5288582445535538
0.5866859136412089
-0.23279059518466094
-1.0813470130561451
0.32389801104220484
-0.6837672802066729
-0.5030285412563872
0.7120380453950238
-0.8772037192459565
-0.7700069596665418
1.0053674737672753
-0.003489715696649606
0.9422671777491927
0.8460327558644822
0.433080937026908
-0.15576246484359155
-0.785502381124049
-0.3359345577607188
-0.15681884066274815
-0.10276674732981712
-0.7767508760730041
-0.5988840693551521
0.6695642944456054
-0.19836172585400513
-0.6897098083521993
-1.0014823462097318
-0.950093603129707
0.7020158484685652
-0.8679972060059701
-0.7944478581862835
0.6794478451294373
0.9752868733791376
-0.7514827765801718
-0.8257122402408178
-0.44280614549604186
0.294644464705141
-0.40691449506397126
0.18246662358625254
0.42052500522943753
-0.4342969736222888
-0.2782311086948073
-0.41415329175191434
0.8647836437269883
0.2183368157991462
0.08548157606138998
-0.09280457899370595
0.6544043950982565
0.3695606457834571
-0.7018660168617782
-0.7562916680722679
-0.7299169255458231
-0.8048831693928118
0.9014343937348497
-0.13062867423795854
0.21612240962591692
-0.8057287241457415
0.7472616785672727
-0.37249325748826984
0.10641303030823547
0.854484542855148
-0.5477942083184398
0.20076523676077937
0.48285015356246686
-0.4352682457054183
0.1578523772781511
0.04145185463981789
-0.5768329117257283
0.12825651902377755
-0.25710440241045296
-0.35421739402491986
-0.30248183884686175
-0.5664250637463022
-0.31236003774605775
0.5709169513389238
0.7142226025080821
-0.7978361088839657
0.50667347941669
0.8084723910875462
0.14872492567323195
-0.5854444962064623
-0.6268460060519389
0.8659145245371245
-0.8751760659682165
0.11257578972352494
0.4795762482368136
-0.4868651683271756
-0.12742035907267768
0.18275461417354288
-0.8821251521756497
0.8317242249932807
-0.4043152656439455
0.12245682491861985
-0.47231612170819587
0.023803801313785906
-0.5634177625333803
-0.745849062735729
-0.754085513619739
0.38663618810310685
0.5613382011967322
-0.0811709857502625
0.46537793529722343
-0.1151283991532111
0.5748208457747486
0.7404940608124487
0.009704807178686266
-0.3980087257780499
0.8412064288717813
0.027277567408974395
-0.8346586708128788
-0.5962467543215644
-0.435442597710724
0.43374245182892374
-0.06481095652330567
-0.35073468049668094
0.1102127659627576
-0.06525556705019653
-0.5659899721170928
-0.7716915248564955
-0.4622596023466403
-0.8626193006038606
-0.33593116670670187
0.030995594399412192
-0.995717915770848
0.12447344131330082
0.9002730343443822
-0.5232780170474499
-0.3433401476829968
0.4987030063884014
0.1961675131769039
0.06373940912853464
-0.928274087278503
-0.6555273584721903
-0.7827904218896469
0.25461545052529383
0.09094487385037203
-0.4759526603547262
-0.8221996548691077
-0.6205864677962686
-0.3292740678778315
0.4777317301895535
0.6309465361356363
0.6228214200761757
-0.25582970593253196
0.8261752733475551
0.09056869074741947
-0.019279694142240286
-0.7228709724223986
-0.6414383411217273
0.01491570774794903
-0.4305152064387686
-0.40494096104048183
-0.2676673947662394
-0.24020534118409273
-0.6191051648325149
-0.9771925419116418
0.5780674005157437
0.1469341696848324
0.07243572893070971
-0.2914258978196279
-0.2960435590608545
0.5205808120063508
0.7824277781173904
-0.17637205577492857
0.953277442662932
0.32002684031971695
0.4202089913432555
-0.4976018481124885
-0.8325395821286514
-0.3140243505755176
0.9357492169625188
0.8546535878623329
0.05399986000502369
-0.8609597583704868
-0.12159770713923902
-0.6232737485122944
-0.039983764889210766
-0.7580344768044943
0.8004863279451504
-0.11706699778194006
-0.3849591944074069
0.34529692227673375
0.1742576384466509
-0.5703029763513211
-0.8271134441089686
-0.4266159760919512
-0.7904336567138697
0.5643534352630967
0.5215670699116685
-0.6793769600098324
-0.5183953261910776
0.35537864456578505
-0.641274129880801
-0.4642817722998083
-0.48361613674786585
0.738932308974891
-0.5007388779223033
0.1414545381101704
-0.1184141961820038
-0.8210595892475061
0.8906040978359997
0.8487294997660842
-0.6661460872419424
0.6247753564709976
-0.7294486847534726
-0.9147157397429754
0.6357663502894922
0.960476672096146
-0.27748299939847476
-0.8397679665695312
-0.7688547877872303
0.1815779488397439
-0.07668397703374073
0.1224912265803003
-0.4846770071727995
0.7813936839493291
0.8436796429910016
-0.6040081494715087
-0.12334194674202795
0.6381413076424528
0.026334054047005572
0.5025936344828412
-0.5041490917998095
0.9045931871764519
0.8729590395823639
0.462978941639357
0.6650034960702657
-0.30475896291698223
-0.2636996173692214
-0.8756932102469103
-0.010521469772491403
0.05181571168959636
0.5777985399261252
0.31177154822997966
-0.13649618460066307
-0.2104115335452968
-0.27016620169207645
0.13825476271127213
0.6393056813123208
-0.6915739012628294
-0.6226875447503989
0.4038211286110839
0.904248045499304
0.46953198321270295
-0.3160330241128093
0.617626630890805
-0.8851611043444334
-0.6915472383558576
-0.6166495741271539
-0.7595965224045935
0.19993384714484794
0.5340025635469087
0.38085659801879734
-0.78020722173983
0.41296161339556775
-0.018638122152998652
-0.2153305075037399
-0.4836289967438329
0.33937138604270184
-0.19038453918577677
0.7659631807989503
0.02153204781324043
0.7335715807987401
-0.4050340540091365
0.11211193934742109
-0.07988748699834597
0.5044670545401697
0.20648572473412932
0.5855895603374806
0.6512009821146145
0.5507518008201946
0.6144155171735962
1.1350996484112972
-0.4936001215765624
0.7606963195318885
0.7373903868641747
0.8998806086018423
-0.6293215520867314
0.5068514081605583
0.6687899796557868
0.4104633885944449
-0.9700717240892777
0.28221648744820743
0.508405653671876
0.6744879787058986
0.018712196483020187
0.17449601143991003
0.7637906398112848
-0.5663387552936443
0.9593794309829928
-0.37059314732162435
-0.5726580712842466
0.7318269931832814
0.9010414793340352
-0.350458433524128
0.04893420040334121
-0.8094087360812396
0.27088747693489307
-0.7505808058175436
-0.1605491754731897
-0.7729152562102357
-0.47518609098883896
-0.7115210224071776
0.10508812202990758
0.06101785510422838
0.42922026015130094
0.35215583566681935
0.6758371689436481
-0.7926218331134947
-0.7718998421218151
0.5427047287145685
-0.5741549670437837
0.3227338044910119
-0.783148928689289
-1.1084173114553217
-0.9718837836751398
-0.9341281801041187
0.9191933468750642
-0.3913908436641388
0.828477870612362
-0.7322731789333713
-0.9721405620211163
-0.02201615731963935
0.24369878392137828
0.2326854105881404
0.542018602550193
-0.5616021301545222
-0.5969365432004105
-0.24222846418926935
-0.4039681749754367
-0.3034243941400022
0.08744431571116251
0.91573202702538
0.9099826742790698
-0.33470799474654384
-0.3028248106881416
0.5987237948352114
0.8002761808425605
-0.4712716880865463
0.19944362737902288
-0.4989873074149827
0.15677528306643085
-0.8103476469018867
-0.11764506754686611
-0.6924951536342984
0.06172518066911285
-0.5854355896450064
0.47436348571897285
0.3546360582335305
0.03480759433528699
0.4556003781218689
0.3438849672351239
-0.40832500959922313
0.3199973251239775
-0.7870283454832515
0.3129816290216237
0.03433481245098811
0.12955188886412236
0.07494463861599227
0.8445524759561186
0.8335637725426966
1.0775204202607465
-0.877277199846158
-0.05676458324264443
0.679109683954575
-0.737941321573067
0.5712337144375534
0.9593345074395031
-0.301492369182117
0.3479606051697498
0.6952485636891229
0.7867747550840939
-0.015441207224535484
-0.7749498434399669
0.10733684926845434
0.07955210809000228
0.11242441720097837
-0.7212465761266739
0.20569063014568262
-0.6285435610004372
0.28762250181402427
0.8311784376801342
-0.02775932374908116
0.9923872598137364
0.6816455632009308
0.46427340434801395
0.07350923048312298
-0.6684171305547072
-0.5166324487869817
-0.17735508366089958
-0.7515271091397648
0.6416316542417907
-0.06312411312082403
1.0389447722823046
-0.7608005007367109
0.25109097419461485
-0.33889268353536267
0.5459936094604301
-0.3589397901828687
-0.011593404468172286
0.04521587029308886
-0.09027962721010784
-0.3247603226515344
0.8668982053438659
0.7103555855117927
-0.6916494892972308
-0.9750979508405411
-0.3150497560206545
-0.11230074325307447
0.328467703881465
-0.4418180951841197
-0.8217932143556143
0.17000742956879616
-0.06960564280847495
-0.3571684233100071
-0.8811942634764796
0.7225439219577516
-0.4622752554689587
-0.7257756060228032
0.5025906805242092
-0.9257716282328557
-0.5705503744518026
-0.28688382954403185
0.5907593413131609
0.7890541033863387
1.1083585940041376
-0.7788320946146263
0.7402042028607005
-0.09418083183986188
0.42639055773062984
0.5561704207106928
0.835793617046029
0.17647910288863486
-0.7861497723699464
0.9275429493310584
0.04644984405488007
0.6447795000974353
0.21572014130324396
-0.5406167070336212
0.8519866214902582
0.17534042268305783
-1.06266722472822
-0.9685892476315757
-0.5955408719955955
-0.010126287853102182
-0.6753397838921869
0.7749665228298249
-0.4356388750850193
-0.1412834206858369
-0.18566101524227488
0.9587096586490933
0.9085824595014687
0.017905720310036316
0.020500168924033405
0.6148745229178311
0.8328185066772187
-0.15508647592481023
-0.5389670788381281
-0.549568567529525
-0.43329115083667297
0.15614573821736413
0.9085453425595075
0.8315653276176096
-0.29786529875823226
-0.9342374403208241
0.7529026946669432
-0.6470723528128909
-0.378561687179603
-0.8105434337270606
0.24905745019963038
0.3729160383725267
-0.8993453177142652
-0.46005525040060075
0.4102199291715097
-0.6564610942479034
-0.6109181969623517
0.13626333265394938
-0.84754844824338
0.4782304570691606
-0.015447384015527638
1.0053464389488824
0.18075494721563576
0.7166186509158448
0.37989730630172586
-0.08471057852807803
-0.34808649745046555
-0.26849294582262556
-0.6715533165289961
1.0729570093325556
-0.022105088329097494
-0.45851772389420764
-0.7145044546818227
-0.36529867756242196
-0.8593797314679794
-0.20058110570634352
-0.5557861291141768
0.9791592556004134
0.4662357859320769
0.49802168803483293
-0.29258008900457316
0.17207447287291636
0.2765007758104846
0.42771439163697594
-0.713326656060594
0.7201097614967477
-0.71170080496727
0.7645328360398309
0.49079215373323865
-0.4325630935262211
0.9217029685528141
0.019785817377313396
-0.41047660857789475
-0.8774338024092094
0.7856878780629764
0.20362916291589067
0.6767873682374242
0.9256573104435306
-0.2629962211945867
-0.007297506685669642
-0.2457958082549909
-0.6265272707231744
0.3353556338592181
-0.8404964538086377
-0.7383567081348563
0.27622769593686136
0.9468719350555206
-0.5972761946459776
0.47352281627716947
-0.9582799942121655
0.7451311422757532
-0.7363011141004988
0.7795680817176872
0.43742301495704505
0.5521068833055983
-0.9882784331164021
-0.4366766349502007
0.17449557959600365
-0.47393863195547664
0.08874440088221176
0.8512450209014125
0.528402041254412
-0.7130091356038022
-0.14088644489559
0.4239276567653017
0.880032779349428
0.5309482034687404
0.030551641746872846
-0.4521522631530796
0.9452136630096998
0.10021126750113175
0.46337917342729995
-0.07058241393310347
0.34611001443945644
0.492786320527939
-0.9332180946462805
0.7323496085307741
-0.13439017033225933
0.9139693648005794
-0.4854948985316193
0.46726138109296234
-0.9322015394677169
-0.1624404677083633
-0.6605817443542155
-0.1718146854922923
-0.9810184682759071
-0.3152783277253274
-0.5572883852514439
0.10801881857200513
0.3074934540122181
-0.7967435461132044
-0.14343241171661156
0.5390949740744159
-0.360357421956041
0.2808815495858796
-0.936972752322514
-0.809790174939476
0.9184059718020938
0.7747951623368529
-0.6953286737592033
0.8685119826239214
0.4253193991848661
0.06326208034448502
0.172013444754891
0.7117866765616434
0.8415597908232251
-0.4696594866040983
0.6892789219919462
0.15146146231921692
-0.6377804031745606
0.7406774932923379
-0.595058039697788
0.17038139957318468
0.1395025194066565
0.196035207035887
0.7906791324821476
0.8799613810562522
0.4028830110651031
0.26840468682588503
0.7887336962631714
0.24140017163129004
-0.07018719555412596
-0.3429424461572946
0.3804598662013584
-0.6824602034648936
-0.38963898963840077
0.08231134455321165
-0.723071825957508
-0.5199932288927558
0.6269585600283593
-0.34848103085498144
-0.2720724675790619
-0.3596676916208297
0.5218614766093753
0.5578642250410332
-0.05005520341897391
-0.580318650555616
-0.4754167090790927
-0.9720100794311097
0.358921398882348
-0.8083502667107401
0.8073654525824926
0.36776923321230376
0.1617778854396479
0.17785591520871605
-0.3080721052874299
0.9156111385200633
0.5050470837738106
0.2543056896933038
0.9124565898093192
-0.8755143717462021
0.290913777210219
0.18123438728240707
-0.5555619202413676
-0.728329863986568
0.14028823557834097
0.9173161852326469
-0.5409028986025466
0.27283676264386314
-0.8098518174181967
0.6110696614166352
-0.6888159504143213
0.9819734970672576
0.03252330014617561
-0.6645966903267381
-0.7430467920269228
0.4692163471741222
-0.9002702127450549
-0.37012787071708686
0.43267553434911804
-0.8763483054230399
-0.12218061510320334
-0.7361513757137685
-0.1951332281335688
-0.5512509210395264
-0.6891375658113723
-0.15707475664037104
0.8884032267507286
0.7943175710620279
0.8578117390332706
0.040386929098238225
-0.9917468451811154
-0.14704698689386642
0.13099256416287186
-0.9255302925646817
0.5692465368774513
-0.4059826330907862
0.6376848469205256
-0.29837462750274896
-0.8614942085058597
-0.4269441301222144
-0.5424206315428587
0.8558350826697656
-0.0033468195677171806
1024
-0.1817569350301457
0.8005405215109295
-0.036415271402695314
-0.2803866914783038
0.05422829007075725
-0.4320853412160943
1.0101491011765769
1.0141203738940208
0.5207953590619404
-0.588352620149578
0.7430305065302157
0.5988670805316765
-0.6338482748895324
0.3546519470624979
-0.5390429831803578
-0.8938968455725713
-0.5339009181832886
-0.11475469646637583
-0.8498048052145762
-0.25909952840968364
-0.49022531243792716
0.013394371005551214
-0.4798791864539069
-0.31385654128694473
-0.17739205825205834
0.15263610822486215
-0.2879250264954719
0.7727599221476992
0.6326335728737525
1.0004209034292455
0.3543063038715154
-0.37955251860111094
0.5097154626518883
0.2140606465820434
-0.7563403544455245
-0.37167818397290686
-0.6862958031261115
0.07473184295376753
-0.1741594825602752
0.23646695420764471
0.6202164873212335
0.527325027259842
0.6538870564476706
0.7306675148821664
0.016373221829064522
-0.02905517298139134
-0.964242751927797
0.612997999971512
0.6329934877793097
-0.9632195034329784
-0.8744862904051559
-0.18001305534344533
-0.32329621732503183
-0.7980831845920694
0.8821116193814285
0.7109731729561479
0.9000837702373584
0.4703390881463436
-0.3682987112719123
0.4485340397273235
-0.7142045486555623
0.7930223683251646
0.9206078834417665
0.6499239704920289
0.1762091681450993
-0.25501435967837527
-0.6728658729924173
-0.24484111930854766
0.33567810944847
-0.9605857832039875
-0.7317635371057274
-0.9492592800849419
-0.17615384957882857
0.05649631979348958
0.7962342012663547
-0.23201858029545913
-0.9434338708393301
0.13288884710766824
0.90174223313992
-0.19681976667333687
-0.6536325908350838
0.6002860048402052
0.8663005022762628
0.5488701762227767
-0.47062450437955683
0.8381288156672242
0.14417812138619832
-0.9325757409727243
-0.11814920550108257
-0.620225399618471
-0.1535320300983647
0.6305524309399982
-0.7559611210419676
-0.01813707809534934
-0.3875890976044022
0.8654089832719578
0.5111894977888402
-0.8634149687630106
0.8063160434053155
0.03718296156565581
-0.5950898112867524
-0.14646906869319876
0.3163174752784414
0.1440607345523954
0.6402509541901645
0.7398957270097201
0.9279159815203567
0.16972043587515315
0.5394233052887056
-0.580325478470958
0.3994869561877695
0.6354081720001626
0.6468186068651394
-0.7838190210232753
-0.5084550678533919
-0.9079508345165997
0.6542452583107595
-0.4941008371057277
0.1381918050325159
-0.6513118246185413
0.9834929654996265
-0.22607665993299186
-0.4793183801920358
-0.5758191523431683
-0.396594990645388
0.609050683016299
-0.4102167868460202
0.17932899044135583
0.7678468605271755
-0.23969394640032515
0.5831217885981124
0.21070898344699104
-0.3228370620434029
0.6516835556282501
-0.43802447963320923
-0.8165780814524537
-0.8453456418796221
-0.9306342721739379
0.7954609862401647
-0.8929763422715157
-0.7091781674503195
0.36976222154170413
-0.6202574520664285
-0.7388157939110891
-0.41492454152785496
0.10277242191233009
0.7051732737584989
-0.6257021938803445
0.840030065249981
0.5603639321597595
0.9613535392840097
-0.28837661515998986
-0.8583428002900241
0.5142972432006426
-0.12370295108896168
0.8157262261499418
0.44559274359690776
0.06577359362694016
0.053221419607503866
-0.41374527994867477
0.21050451389062946
-0.8927258414066465
-0.0014226411247572188
0.2872093209957876
-0.4996291673143211
-0.8426411951438071
0.29125143562061717
0.5870807237003054
-0.879021504914449
0.47669058998871844
-0.08283860697265494
-0.4563747298089022
0.9766897112129396
0.9728139120262501
0.8565706842068285
0.410647249021853
0.9478478171887501
0.8229006695056137
0.2059627286183256
-0.27411192709002613
-0.3067625697059549
0.4085085628350953
0.37909521741980373
0.9023584316889232
-0.3928854400221162
-0.9840943433926992
-0.7050617302057375
-0.9364939722639972
0.07828377160953738
-0.15319227896148435
0.05859522920248413
0.7294356448118411
-0.846319971010562
-0.14576320684010238
-0.46921130029682057
-0.5611090724650154
-0.796935293034295
-0.056893309937406204
-0.23003590314928266
-0.26287289912525663
0.577340160252299
0.8944973525082088
-0.200318120325526
-0.3401846201603074
0.44521321261358243
0.5344048884705888
0.05697562338870097
0.23058241443284308
-0.5245016062828501
-0.46371650929754005
-0.49108962862317473
-0.9565258386913307
0.6558666050491775
0.8459723107434891
0.3229902361669552
-0.35351666568142454
-0.4115917461981164
-0.12088193917914793
0.7613504452519295
-0.56902707078796
0.6622446282506927
0.7526267400329354
0.893183979739072
0.07753814107410266
0.4915247426949184
-0.6658294733407514
-0.06245458861039481
-0.5335777513374039
0.45332840287010717
0.35690587634362775
-0.5863589950896432
-0.3239975367807773
-0.9485299503026858
1.0229121676851185
0.8725765992427976
-0.933104337816428
0.712364104917331
0.21146538444345447
-0.018351154642444165
-0.3918957875172217
0.6411055730766368
-0.2585270771343783
0.48612778062309836
-0.5094170298340156
-0.436603040623503
0.31142238163277475
0.2635930593656018
0.6640297251720504
0.7350250834377944
0.4693837465531278
-0.10711363548653285
-0.5161171801250727
0.46435810469670596
0.5662375234052115
0.9238715900904946
-0.4754925132611348
-0.34820205400718096
-0.38140517583551137
-0.06685346311330327
0.7245218531137071
0.07561794778522854
0.812640539507301
-0.807084477730647
0.48719888437215847
-0.8505576335064594
0.9029302550557258
-0.3149085442499146
-0.7354804953028062
0.3864446122530591
-0.08789584268925897
-0.36747618534509313
0.13264466730017985
-0.0432339964023157
-0.3556607510254912
0.23368701553041116
-0.29427081954189666
-0.22779902547815017
-0.563995328748142
0.9209007379397102
-0.7016119037931616
0.10926664456410096
0.7626999940003097
-0.4394919588071012
0.9248466059940488
0.5097818325488174
0.3154597428575359
0.9516899051770551
-0.5221334697025866
-0.8337830717967801
0.017039459951648152
0.3710295194793025
0.5302082858071672
0.36200216862555035
-0.353550779729182
0.6180576198312193
0.9567685778123817
0.6784369247093515
-0.9193205388770319
0.7026474898236599
0.7635332553737744
-0.28118552976666716
-0.07667694021346602
0.5724740812490846
0.46392515764137365
0.6989513185067787
-0.07376768899956314
0.5503734896601096
0.46188639253461045
-0.24410777350144308
-0.891614574551812
0.4284346347584308
0.35205648353011326
-0.5033959459935026
-0.211668242623149
0.8880483718161174
-0.08265615568092487
-0.16040696999383458
0.9466798390985729
0.05388150751960962
0.5070878626470101
-0.3607063827163159
0.07032004854281063
0.8510521347840365
0.15235356770758676
-0.10475286340673205
0.4804911651499377
0.22092130844052832
0.8357649919605621
-0.6818976575297295
0.2576816514591181
0.592863335533135
0.6060497784948367
0.9826916451768994
0.7479543367378062
0.049263815049975554
-0.825454531622958
0.19729465959753076
-0.027773334848414457
-0.28864208399100066
0.8521278975764585
-0.9471412113593417
-0.9250232455326851
-0.7814058089448492
-0.3240624180285083
-0.7061806999056346
0.5326634560461655
0.860213706949078
-0.126421870542337
-0.8753374500498758
0.5678447584030256
-0.0469800734968864
-0.5222796079993506
-0.7213446936267185
-0.8378819424487154
0.9791740688699516
0.12953319070276967
0.8818825938704107
0.01068696060888866
-0.46228007841361335
-0.4740116060773415
-0.26050166272778785
-0.538902869690184
-0.9470249759590699
0.3694673454514075
-0.6385896875685663
-0.42454134617334127
0.5298273949728917
0.09595251384005785
0.5796648826038117
0.6288555770915042
0.982829886737378
0.8945988129764064
0.930272254767159
1.0267503843895203
1.0283731673056506
0.07294122416267293
0.8151601803958372
-0.7844379304930543
0.22862986835134105
0.7847331446374816
0.935764588835208
0.14659217966773855
-0.12227857339299725
0.13607011035534763
-0.11868496398290726
0.436679770393136
-0.06022994647045518
0.3249964025738871
0.9797722578634569
0.32205859721273233
-0.49549740125984487
-0.6366440903949112
-0.7804531868962276
0.6592327516304244
0.10220994168701333
0.8549576946930898
0.47762706839822555
-0.7829211555760878
-0.19419781482909051
0.17686759887202655
-0.008976695207880438
-0.5073198028132354
-0.48038749432463973
0.831303650228954
-0.5201672086163787
0.21351820665831409
0.7810267568084776
-0.13768059378551192
-0.6895995517905652
-0.659539412441907
0.16802252589507377
-1.030127104986621
0.4229585506422807
-0.26418949138995507
-0.11759065972908532
0.24952956657841174
-0.6055749294140047
-0.5822586456475016
0.705405689705483
0.3154598308772625
-0.42877633963937783
-0.2030245718910243
-0.45338121305965334
-0.6027816039233908
-0.22314395281775
-0.08000028574611562
-0.19254983711221535
-0.9443771946143412
0.3539526452130492
-0.35390101940932384
-0.3500419137683828
-0.12491473328513122
0.3592719026369256
0.717759957168669
-0.2016976921730902
0.7925470398588462
-0.8306587284151944
-0.4703077623755433
0.7748174045047783
-0.1352576963132438
-0.7022894992576492
0.01283714634448507
-0.7271752711156599
-0.5814448333361458
0.4887646002399626
-0.8498222887229464
0.7345624053564419
-0.7807234051899653
0.8414220088654847
0.9615295337397225
0.7259861539774116
0.27603560880924194
0.6586559927331298
0.4481859212330608
-0.9438287367374252
-0.3618841744630187
0.8643005367933526
-0.8748084860585915
0.6813313827843149
-0.2897431259801107
-0.2657094780810682
-0.16601033644214325
0.929453729407699
0.05675041649407668
-0.282857398887613
-0.7086245620155263
-0.5169318920397052
0.92937606543705
0.8568681078457364
0.026274025279455354
-0.5453573502008553
0.9220241402049644
0.4339024604005367
0.8746327796645623
-0.8924091805174315
0.6064431518795937
-0.48120582471994316
-0.7644403609526842
0.24625163258764077
0.18550854685048615
-0.0647910082131673
0.8540145488374266
-0.9614366082776731
0.49558841941296866
0.12722416862697136
-0.2900191270875034
-0.6933817195375578
-0.2808761254736833
0.4882822748824691
0.09316641967542112
0.3821906560001545
-0.6419518374001407
-0.8779270518990164
0.3545432281941331
-0.8702712519045603
-0.6688398660461522
0.9183404822119092
-0.2794307723935746
-0.07848526827610999
0.09999222198010674
0.389405581401435
0.07031973372380057
0.5384723458659244
-0.18063540085296137
-0.09951447707086912
-0.5169164629839428
0.22605932471823964
-0.19972953628123005
-0.4563928739890382
-0.46238970294450005
0.1481775850956246
0.6892538180892464
0.9982359791833841
-0.23624824076777592
-0.02403252740360827
-0.7657167356755302
-0.380052430327066
0.8102781892283129
-0.052275157617831414
0.23391199188782685
0.7799378065322976
-0.8465182368757704
-0.9658058306946352
0.9111215568262484
0.24085463089203982
0.2831465251730454
0.4885572725694376
-0.10353597494488131
0.8646365030712683
-0.536657598859762
-0.9885340674617075
-0.919527773367419
-0.27262016122055965
0.9531753711432083
0.8565790809685278
-0.14841718747734073
-0.6881688796760337
-0.7901407654448885
0.6974740050467307
0.8667834950811292
0.9697454925661336
0.5276532299757807
-0.5788993320627439
-0.26831308015482275
-0.4911501405251105
-0.19481836994507534
-0.653902368192424
-0.8151428666645966
0.7913294813854206
-0.412696399786838
0.04499822248605698
0.4044312151789052
0.16113877808951824
0.3294875100974059
0.9879689976485135
0.7435523765164614
-0.024977668621531668
0.6564025126847505
0.6841179780091663
-0.04491720455119574
0.35392862971081607
0.6335808674748098
0.5920186870669837
0.2232674751480316
0.5165422470256298
0.9491304001586558
0.5446840363832589
-0.2259336316033839
0.05996909303515148
-0.33764573668820597
-0.7072010470792238
0.5347713828814145
-0.24573209500554527
0.3014666593752186
0.16015300777058455
-0.5460968871737619
-0.8833832469972493
-0.41728754525746137
-0.9798593362750896
0.40351551890623777
0.18469711760273533
-0.12963965873363079
-0.5738971043136332
0.3825327040327215
-0.013057002884259783
1.01151227259218
-0.8621991755207147
0.18381766649523695
0.7742734823122175
0.45674488748829184
-0.16217150926019475
0.5653378887715752
0.32015705366578434
0.21747666739995114
0.4205269577557519
-0.31088566486306163
0.058676280101470246
-0.11312725125076692
-0.27027366224493055
-0.7526674274730377
-0.7920241489013917
-0.4156831217370282
0.7812897485064727
-0.7475436141879696
-0.8993777824265562
-0.1631358217715845
-0.06090541188864377
-0.7946340706941147
-0.8381457718252787
-0.3259375953493881
0.19314762492751722
-0.23474345099200142
0.5544606901718213
-0.7681908560089141
0.8023105465734015
-0.03242983772274887
-0.3084249078253413
0.10966107293380128
-0.2425493173538234
-0.40786598686747777
-0.3548935037160391
1.035785561243859
0.1935952603059225
-0.8742066764827817
0.5538581102068044
0.9067329909512843
0.5518111768448027
0.01881505105259848
-0.055074322101750305
0.2061148058352776
-0.2630073601542887
0.9695258289725894
-0.05459311370834534
0.2328852497957729
0.19297575235697517
0.5034034793658609
-0.3044569311725728
0.6616196621903437
0.6384966998870218
0.18994714707006616
0.6410379980037109
0.6629180648436188
0.9825507726404088
0.866285143165168
0.6814846530342242
-0.5923254574068415
0.16868939716963488
-0.16989377445569656
0.3742834474844478
0.7234982572180446
-0.29566145760406565
0.9306109278959922
-0.4475925772639333
-0.824040129078086
0.21650691077321013
-0.9546472480364534
-1.0831322863853345
0.3103443816723886
0.21216748476563074
-0.5457057438825961
-0.7881914044800731
0.5886112446995488
0.9252474788352271
1.0784565383801998
0.43815936339453493
-0.6555830678777287
-0.7325685295135648
0.5455951368468182
0.3479336055247958
-0.9182383673445924
-0.17552807877508667
0.5881181195446747
0.7581520456248249
-0.2953315906822988
0.6515905814022388
0.4212191653288628
-0.31808872219418627
-0.8680203227026488
-0.22490965372410143
-0.7367142667132669
1.0209144678575448
-0.754921119056816
0.27270147288535024
0.8499265148106793
-0.5532515200268505
0.421017134496688
-0.984196200983793
0.08811790012484601
-0.8628255888902622
0.8088799385158362
-0.7258217450321905
-0.5159917759843267
-0.2622650791501133
0.07948720116980992
0.8433034969415172
0.15086068785695153
-0.8764170884492176
-0.5882461388995083
-0.564433281383105
0.7913036012036254
-0.7801290613409841
0.896431972198724
0.5885534238885572
-0.8448227273112271
-0.07703226530475714
-0.492025119707224
0.20701936980784041
-0.7031995837757219
-0.2301175479020527
-0.5979598539387769
-0.3673039959138866
0.4829054162421105
1.0675002936527234
1.0240816780203725
-0.4982349031608105
0.23999854670838658
0.663481405484028
-0.8978559183442569
-0.3404015447221232
-0.5454213874755623
-0.8431221049551886
-0.18233961629519793
0.20718543388467062
-0.9018539844490693
0.41163548385828286
0.6051211693721815
0.9751995992714538
0.6946605986788349
0.6887037881318275
0.6850993384337365
-0.5362189975796648
0.5517174624463369
-0.50137812342966
0.599959975452935
-0.09501267786164845
-0.625004761172573
-0.7493503246313868
-0.12671411950087946
-0.3880027561821728
-0.15710098676008602
-0.30598370349688236
-0.6484015402241912
-0.49542209379244734
-0.671210778524749
-0.45538885270270807
0.5830233875449313
0.9105293958136315
0.22203891664341416
-0.14081998922234024
0.8022272044321518
0.7403629835646693
-0.9180302928349429
-0.18656852280200098
0.576884297287496
0.4074763103439918
-0.47769364154954774
-0.15929167705915462
0.1820721422506823
0.0012936505216479281
-0.8361209575801648
0.4793100246057674
0.560203380722554
-0.51537208522271
0.4136222501109563
-0.342290538912691
-0.8723695342347275
-0.5270901036286054
0.01511754613196128
0.5929472167900404
-0.27816681816590866
-0.5539865036819913
-0.12502710311283932
0.4987973821037962
0.6120802901170775
-0.6530405081832182
0.4657781475374365
0.7567227549684542
0.14316585062095616
0.8376974439912218
0.773937453376958
0.46656389900177825
-0.6177328272284569
0.47304395729775484
-0.576777132199647
0.06659901573562106
-0.6893100925822085
-0.8466790153089262
-0.7321963402442138
-0.8804842995807582
0.321675928300584
-0.5480866557596731
0.49057488995844517
-0.7002061296866762
-0.531573383232924
-0.5074032905698594
-0.015628259837520364
0.061674382161418066
0.0103883856855888
-0.9047947367843134
0.33223937222812366
1.0126046590048567
-0.3754018987615545
-0.9450832433888321
-0.9309219690770737
-0.1324869612740549
0.17649328687775864
0.3386864474875639
-0.7749885695559174
0.3237038571805517
0.8587392096644375
0.1581735237288401
-0.2734786258215089
0.6262429030073443
0.2710377792740143
-0.8145267100816571
-0.14354278012840369
0.8114888926417034
-0.8587843898948567
-0.9559937310027313
-0.09243331603753356
-0.3625521053850732
0.21785815383106494
-0.03975182416336133
0.9430273003401836
0.8093953316401128
-0.7646295214917059
0.3668184898716843
0.2364128628312159
0.25468568680511294
0.139761677730638
0.5037348614823957
-0.3640679973666713
-0.1639860502318226
0.8148031100884485
-0.7449128290335825
-0.05890465487915225
0.9202627091113647
-0.33867663382123825
0.3385379733066769
-0.20078834368441417
-0.0558333166287544
0.4815614612484097
0.6428762983700209
0.3565200824484644
-0.3423788141194856
0.5547067877654577
0.5644739446870733
-0.3719821389787124
-0.8114796928957759
0.33518056160202736
-0.11996203104820455
0.2633310182723813
-0.9041605436225648
-0.6109536688320829
0.05635017173114975
-0.25854231362956354
-0.5609512542128009
-9.447318899376448E-4
-0.5592631422940028
0.27010325342045577
0.5675299756982864
0.9772664501033459
-0.2503521798313947
-0.6109358252528091
0.13414729958840746
0.7321990413575051
-0.5506222243179307
-0.7528217906625648
-0.4266475545699955
-0.8058071539057634
-0.22249570710563935
-0.042905660155723224
0.45472597426154154
-0.5039966869878909
-0.1950836085555621
-0.5219294510805252
0.9736724658962601
-0.5317527571873637
-0.7937900380431282
-0.8705394683764636
-0.7784221974346527
-0.9738039281553679
-0.9233617628134593
-0.9415277011452733
0.12014824408047377
0.7018536428947487
-0.6492777639821018
-0.9396407437583768
0.7859244091330267
-0.35284843070447536
0.5651242129641454
0.6653542841125866
0.40745587682945184
0.22671837133630665
-0.01657037552374549
-0.10536903241846164
0.7395724092954624
-0.973873550824303
-0.6923098488558844
-0.06044065159618501
0.3438397832250891
-0.20465441135044246
0.3565135781656645
0.4063187421271548
-0.46890570081912913
-0.2633484678817239
-0.005894540841036656
-0.11645513011928582
-0.379737357126151
-0.7042906137066341
0.7553346806083243
-0.16298955914453359
-0.8315703144283254
0.4891735413833038
0.6496305613307437
0.06945253692672995
-0.7998368635252279
-0.03424312742596369
0.21272331839725375
0.44584490329879667
0.5397192106200055
-0.23711550898257264
0.6586710369924822
-0.7161688828475875
0.8834459693252209
0.08739953155512113
0.9204884415738143
-0.6403879669564263
0.7545076510763568
0.08944059361697373
0.9692507156124944
-0.42892605840543757
0.5906400063318811
0.04633870484272515
-0.2550476261451726
0.275414894534695
-0.42732978773382163
-0.5227433419397193
0.36973227548627097
-0.44274819411658933
0.09679719521674096
0.8205681464658704
0.40831569277909446
0.5952354241762013
-0.7649704411237492
0.9896669910226611
0.5089031268851035
-0.15792279280746474
0.3368490064422866
-0.016532545616118357
0.0635901255288916
-0.1768216394125676
-0.29000836100296473
-0.1420979881689017
0.6721437626629285
-0.46273128240200107
0.02172361322502917
-0.0609053635561748
0.5954275703972959
